{"learner":{"attributes":{"best_iteration":"99","best_ntree_limit":"100","scikit_learn":"{\"n_estimators\": 100, \"objective\": \"reg:squarederror\", \"max_depth\": null, \"learning_rate\": null, \"verbosity\": null, \"booster\": null, \"tree_method\": null, \"gamma\": null, \"min_child_weight\": null, \"max_delta_step\": null, \"subsample\": null, \"colsample_bytree\": null, \"colsample_bylevel\": null, \"colsample_bynode\": null, \"reg_alpha\": null, \"reg_lambda\": null, \"scale_pos_weight\": null, \"base_score\": null, \"missing\": NaN, \"num_parallel_tree\": null, \"random_state\": null, \"n_jobs\": null, \"monotone_constraints\": null, \"interaction_constraints\": null, \"importance_type\": null, \"gpu_id\": null, \"validate_parameters\": null, \"predictor\": null, \"enable_categorical\": false, \"_estimator_type\": \"regressor\"}"},"feature_names":["mileage","Bluetooth","Backup Camera","Infotainment","Screen","Navigation","Hands Free Calling","Heated Seats","Power Seat Controls","Rear Air Vents","Bed Liner","Tow Hitch","4-Cyl","3-Cyl","V6","V8","6-Cyl","city_mpg","highway_mpg","year","model_cat","details_cat","make_cat"],"feature_types":["int","int","int","int","int","int","int","int","int","int","int","int","int","int","int","int","int","int","int","int","int","int","int"],"gradient_booster":{"model":{"gbtree_model_param":{"num_trees":"100","size_leaf_vector":"0"},"tree_info":[0,0,0,0,0,0,0,0,0,0,0,0,0,0,0,0,0,0,0,0,0,0,0,0,0,0,0,0,0,0,0,0,0,0,0,0,0,0,0,0,0,0,0,0,0,0,0,0,0,0,0,0,0,0,0,0,0,0,0,0,0,0,0,0,0,0,0,0,0,0,0,0,0,0,0,0,0,0,0,0,0,0,0,0,0,0,0,0,0,0,0,0,0,0,0,0,0,0,0,0],"trees":[{"base_weights":[2.4247557E4,3.0864545E4,2.1920984E4,3.5294605E4,2.522516E4,2.5598686E4,1.9326098E4,3.287641E4,4.3134707E4,2.0615678E4,2.7234297E4,2.2433621E4,3.0887838E4,1.7715889E4,2.2214281E4,3.0329258E4,4.0183434E4,4.5606152E4,3.7533336E4,1.2705286E4,2.0813162E4,2.5680957E4,3.45548E4,2.1037387E4,2.8234588E4,2.8666658E4,3.983337E4,1.6526838E4,1.882865E4,2.3857643E4,2.009094E4,2.5710662E4,3.4080535E4,3.331371E4,4.3376094E4,4.623811E4,2.6524584E4,2.4046713E4,3.1816242E4,2.305518E4,2.0182322E4,3.1120018E4,2.3896025E4,2.6571645E4,3.2436613E4,1.5050276E4,1.6962055E4,2.2026902E4,1.8586744E4,2.3419475E4,3.4711066E4,1.8916031E4,2.164851E4,2.4176537E4,3.7925426E4,3.0557846E4,3.8122332E4,2.4911383E4,2.0730137E4,2.3479502E4,1.7734285E4,1.5697892E4,2.0457826E4,3.1582133E4,1.51916E4,2.0421588E4,2.7390416E4,2.92422E4,3.668837E4,1.6559676E4,1.408134E4,2.1613895E4,2.4822322E4,9.99475E3,3.5762605E4],"categories":[],"categories_nodes":[],"categories_segments":[],"categories_sizes":[],"default_left":[true,true,true,true,true,true,true,true,true,true,true,true,true,true,true,true,true,true,false,false,false,true,false,true,true,true,false,true,true,true,true,true,true,false,false,false,false,true,false,true,true,true,false,true,true,true,false,false,false,true,true,false,false,false,false,false,false,false,false,false,false,false,false,false,false,false,false,false,false,false,false,false,false,false,false],"id":0,"left_children":[1,3,5,7,9,11,13,15,17,19,21,23,25,27,29,31,33,35,-1,-1,-1,37,-1,39,41,43,-1,45,47,49,51,53,55,-1,-1,-1,-1,57,-1,59,61,63,-1,65,67,69,-1,-1,-1,71,73,-1,-1,-1,-1,-1,-1,-1,-1,-1,-1,-1,-1,-1,-1,-1,-1,-1,-1,-1,-1,-1,-1,-1,-1],"loss_changes":[7.7822165E10,3.2186958E10,3.5540304E10,1.259248E10,4.8655565E9,2.5405555E10,9.92143E9,9.371582E9,6.554583E8,1.9881984E7,3.7179556E9,7.3354445E9,1.0402398E10,1.5795814E9,2.2773105E9,6.504481E9,1.7132913E9,1.4825882E8,0E0,0E0,0E0,2.6238976E9,0E0,9.028895E8,1.5973417E9,2.842329E9,0E0,1.9392102E8,1.5613952E8,1.2795576E9,2.3283302E8,2.737193E9,2.1382758E9,0E0,0E0,0E0,0E0,2.6073498E8,0E0,1.0063872E8,3.7689754E8,3.225436E8,0E0,9.865462E8,1.1409981E9,1.2521472E7,0E0,0E0,0E0,5.425234E8,3.2413696E7,0E0,0E0,0E0,0E0,0E0,0E0,0E0,0E0,0E0,0E0,0E0,0E0,0E0,0E0,0E0,0E0,0E0,0E0,0E0,0E0,0E0,0E0,0E0,0E0],"parents":[2147483647,0,0,1,1,2,2,3,3,4,4,5,5,6,6,7,7,8,8,9,9,10,10,11,11,12,12,13,13,14,14,15,15,16,16,17,17,21,21,23,23,24,24,25,25,27,27,28,28,29,29,30,30,31,31,32,32,37,37,39,39,40,40,41,41,43,43,44,44,45,45,49,49,50,50],"right_children":[2,4,6,8,10,12,14,16,18,20,22,24,26,28,30,32,34,36,-1,-1,-1,38,-1,40,42,44,-1,46,48,50,52,54,56,-1,-1,-1,-1,58,-1,60,62,64,-1,66,68,70,-1,-1,-1,72,74,-1,-1,-1,-1,-1,-1,-1,-1,-1,-1,-1,-1,-1,-1,-1,-1,-1,-1,-1,-1,-1,-1,-1,-1],"split_conditions":[3.454E4,3.05E1,5E-1,2.0195E3,2.0165E3,2.0135E3,2.0155E3,5E-1,5E-1,2.0105E3,5E-1,5E-1,5E-1,2.0125E3,3.45E1,2.0155E3,2.0115E3,5E-1,1.1260001E4,3.811586E3,6.2439487E3,5E-1,1.036644E4,5.7369E4,6.48435E4,2.0175E3,1.1950012E4,2.0105E3,3.5E0,4.19E2,5E-1,5E-1,5E-1,9.994113E3,1.3012829E4,1.3871434E4,7.9573755E3,3.505E2,9.544873E3,3.85E1,2.0095E3,5E-1,7.168808E3,7.5E0,5E-1,2.85E1,5.0886167E3,6.608071E3,5.5760234E3,2.0175E3,5E-1,5.6748096E3,6.494553E3,7.2529614E3,1.1377628E4,9.1673545E3,1.14367E4,7.473415E3,6.2190415E3,7.043851E3,5.3202856E3,4.7093677E3,6.137348E3,9.474641E3,4.55748E3,6.1264766E3,8.217125E3,8.77266E3,1.1006512E4,4.967903E3,4.2244023E3,6.4841685E3,7.446697E3,2.998425E3,1.0728782E4],"split_indices":[0,18,12,19,19,19,19,15,12,19,5,15,15,19,18,19,19,13,0,0,0,9,0,0,0,19,0,19,22,20,8,16,5,0,0,0,0,20,0,22,19,14,0,17,5,18,0,0,0,19,2,0,0,0,0,0,0,0,0,0,0,0,0,0,0,0,0,0,0,0,0,0,0,0,0],"split_type":[0,0,0,0,0,0,0,0,0,0,0,0,0,0,0,0,0,0,0,0,0,0,0,0,0,0,0,0,0,0,0,0,0,0,0,0,0,0,0,0,0,0,0,0,0,0,0,0,0,0,0,0,0,0,0,0,0,0,0,0,0,0,0,0,0,0,0,0,0,0,0,0,0,0,0],"sum_hessian":[5.098E3,1.323E3,3.775E3,7.38E2,5.85E2,1.558E3,2.217E3,5.68E2,1.7E2,1.81E2,4.04E2,9.78E2,5.8E2,1.428E3,7.89E2,4.25E2,1.43E2,1.13E2,5.7E1,6E0,1.75E2,3.37E2,6.7E1,7.92E2,1.86E2,4.68E2,1.12E2,6.98E2,7.3E2,4.39E2,3.5E2,1.94E2,2.31E2,4.9E1,9.4E1,1.08E2,5E0,2.7E2,6.7E1,2.28E2,5.64E2,1.08E2,7.8E1,3.06E2,1.62E2,1.67E2,5.31E2,4.5E1,6.85E2,4.25E2,1.4E1,2.07E2,1.43E2,1.75E2,1.9E1,1.28E2,1.03E2,2.09E2,6.1E1,2.08E2,2E1,3.6E1,5.28E2,1.04E2,4E0,3.9E1,2.67E2,9.7E1,6.5E1,5.9E1,1.08E2,1.93E2,2.32E2,1E0,1.3E1],"tree_param":{"num_deleted":"0","num_feature":"23","num_nodes":"75","size_leaf_vector":"0"}},{"base_weights":[1.7031295E4,2.070284E4,1.485513E4,2.491874E4,1.7679309E4,1.7287775E4,1.3106974E4,2.0672129E4,2.7481748E4,1.4535652E4,2.0340498E4,1.5729745E4,2.215011E4,1.1681687E4,1.4473455E4,1.7830074E4,2.5514738E4,3.053253E4,2.4562473E4,1.3784628E4,1.6141244E4,1.8333453E4,2.4353207E4,1.4821554E4,1.9782764E4,2.5788371E4,1.8946607E4,1.2209991E4,1.0581723E4,1.5904588E4,1.3604452E4,1.624424E4,2.5593324E4,2.7986625E4,2.0905146E4,3.1314566E4,1.6975002E4,2.499395E4,9.991652E3,1.3013961E4,1.4811015E4,1.4221762E4,1.7342816E4,1.7520387E4,2.455068E4,2.9435342E4,2.231358E4,1.3954419E4,1.6425623E4,1.72659E4,2.294949E4,2.1240947E4,3.0552057E4,1.9190031E4,8.891801E3,1.4871923E4,1.2028618E4,7.5337505E3,1.0746062E4,1.4025279E4,1.684863E4,1.2605777E4,1.4164716E4,8.466749E3,1.6538957E4,1.5605754E4,3.1939582E4,2.8165598E4,7.9976934E3,3.457247E4,2.8487234E4,1.0385174E4,2.1442953E4,1.8789217E4,2.5896164E4,1.652128E4,2.036575E4,1.929592E4,2.7144566E4,1.957177E4,2.4262383E4,1.3676421E4,1.8009756E4,1.6601328E4,9.898438E3,1.8439771E4,1.4471161E4,6.7471274E3,2.328709E4,1.822901E4,2.5316562E4,9.752109E3,3.1020406E4,2.1618818E4,1.7807305E4,1.1075925E4,1.2367446E4,2.1825488E3,7.7097866E3,1.408222E4,3.5107986E3,1.0126334E4,1.7076568E4,1.561813E4,1.3608638E4],"categories":[],"categories_nodes":[],"categories_segments":[],"categories_sizes":[],"default_left":[true,true,true,true,true,true,true,true,true,true,true,true,true,true,true,true,true,true,true,true,true,true,true,true,true,true,true,true,true,true,true,true,true,true,false,true,true,true,false,false,false,false,false,true,true,false,true,true,true,true,true,true,true,true,false,false,true,true,false,true,true,false,true,false,false,false,false,false,false,false,false,false,false,false,false,false,false,false,false,false,false,false,false,false,false,false,false,false,false,false,false,false,false,false,false,false,false,false,false,false,false,false,false,false,false],"id":1,"left_children":[1,3,5,7,9,11,13,15,17,19,21,23,25,27,29,31,33,35,37,39,41,43,45,47,49,51,53,55,57,59,61,63,65,67,-1,69,71,73,-1,-1,-1,-1,-1,75,77,-1,79,81,83,85,87,89,91,93,-1,-1,95,97,-1,99,101,-1,103,-1,-1,-1,-1,-1,-1,-1,-1,-1,-1,-1,-1,-1,-1,-1,-1,-1,-1,-1,-1,-1,-1,-1,-1,-1,-1,-1,-1,-1,-1,-1,-1,-1,-1,-1,-1,-1,-1,-1,-1,-1,-1],"loss_changes":[4.043283E10,2.3714791E10,1.3403161E10,8.0194437E9,8.965358E9,9.780232E9,3.4710487E9,3.687727E9,3.6051026E9,3.9369114E8,4.3615846E9,3.4466038E9,3.2643645E9,4.0542208E8,9.651159E8,1.960321E9,6.569247E8,1.9600179E9,1.3534495E9,8.805171E7,1.1545805E8,1.6019784E9,1.3748634E9,9.308406E8,1.0623058E9,2.5571E9,2.5769574E8,1.1803853E8,7.231693E7,3.8997197E8,1.5603302E8,2.3358669E8,1.466454E9,1.8010112E7,0E0,1.0508042E9,2.189568E8,8.961229E8,0E0,0E0,0E0,0E0,0E0,6.841139E8,7.595008E7,0E0,2.9456794E8,3.714908E8,1.6481485E8,8.090624E7,2.695332E8,5.0826854E8,3.794043E8,1.859502E8,0E0,0E0,5.0569216E7,1.071104E6,0E0,2.4799232E7,1.79499E8,0E0,9.052979E7,0E0,0E0,0E0,0E0,0E0,0E0,0E0,0E0,0E0,0E0,0E0,0E0,0E0,0E0,0E0,0E0,0E0,0E0,0E0,0E0,0E0,0E0,0E0,0E0,0E0,0E0,0E0,0E0,0E0,0E0,0E0,0E0,0E0,0E0,0E0,0E0,0E0,0E0,0E0,0E0,0E0,0E0],"parents":[2147483647,0,0,1,1,2,2,3,3,4,4,5,5,6,6,7,7,8,8,9,9,10,10,11,11,12,12,13,13,14,14,15,15,16,16,17,17,18,18,19,19,20,20,21,21,22,22,23,23,24,24,25,25,26,26,27,27,28,28,29,29,30,30,31,31,32,32,33,33,35,35,36,36,37,37,43,43,44,44,46,46,47,47,48,48,49,49,50,50,51,51,52,52,53,53,56,56,57,57,59,59,60,60,62,62],"right_children":[2,4,6,8,10,12,14,16,18,20,22,24,26,28,30,32,34,36,38,40,42,44,46,48,50,52,54,56,58,60,62,64,66,68,-1,70,72,74,-1,-1,-1,-1,-1,76,78,-1,80,82,84,86,88,90,92,94,-1,-1,96,98,-1,100,102,-1,104,-1,-1,-1,-1,-1,-1,-1,-1,-1,-1,-1,-1,-1,-1,-1,-1,-1,-1,-1,-1,-1,-1,-1,-1,-1,-1,-1,-1,-1,-1,-1,-1,-1,-1,-1,-1,-1,-1,-1,-1,-1,-1],"split_conditions":[4.431E4,5E-1,5E-1,2.0135E3,2.0175E3,2.0145E3,5E-1,5E-1,2.5303E4,5E-1,5E-1,5E-1,2.45E1,7.81315E4,3.15E1,5E-1,1.55E1,5E-1,5E-1,1.9E1,2.0135E3,5E-1,2.85E1,2.0125E3,5E-1,2.0175E3,3.45E1,3.5E0,2.0095E3,2.0145E3,2.0145E3,7E0,3.495E2,4.4E2,6.2715444E3,5E-1,2.0205E3,1.25E1,2.9974958E3,3.9041885E3,4.4433047E3,4.266529E3,5.202845E3,5E-1,2.0185E3,8.830603E3,2.0185E3,4.18E2,2.35E1,7.3323E4,1.775E2,5E-1,4.49835E4,5.8291E4,2.6675403E3,4.461577E3,2.0115E3,8E0,3.2238186E3,1.024655E5,1.2E1,3.7817334E3,1.01E2,2.540025E3,4.9616875E3,4.6817266E3,9.581875E3,8.44968E3,2.399308E3,1.0371741E4,8.546171E3,3.1155522E3,6.432886E3,5.636765E3,7.7688496E3,4.956384E3,6.109725E3,5.7887764E3,8.14337E3,5.8715312E3,7.2787153E3,4.1029263E3,5.402927E3,4.9803984E3,2.9695317E3,5.5319316E3,4.3413486E3,2.0241383E3,6.9861274E3,5.468703E3,7.594969E3,2.9256328E3,9.306122E3,6.485646E3,5.3421914E3,3.3227776E3,3.7102341E3,6.5476465E2,2.312936E3,4.224666E3,1.0532396E3,3.0379004E3,5.1229707E3,4.685439E3,4.0825916E3],"split_indices":[0,12,12,19,19,19,2,15,0,7,7,15,18,0,18,16,17,13,13,22,19,5,18,19,5,19,18,22,19,19,19,17,21,20,0,14,19,17,0,0,0,0,0,8,19,0,19,20,17,0,21,5,0,0,0,0,19,22,0,0,21,0,20,0,0,0,0,0,0,0,0,0,0,0,0,0,0,0,0,0,0,0,0,0,0,0,0,0,0,0,0,0,0,0,0,0,0,0,0,0,0,0,0,0,0],"split_type":[0,0,0,0,0,0,0,0,0,0,0,0,0,0,0,0,0,0,0,0,0,0,0,0,0,0,0,0,0,0,0,0,0,0,0,0,0,0,0,0,0,0,0,0,0,0,0,0,0,0,0,0,0,0,0,0,0,0,0,0,0,0,0,0,0,0,0,0,0,0,0,0,0,0,0,0,0,0,0,0,0,0,0,0,0,0,0,0,0,0,0,0,0,0,0,0,0,0,0,0,0,0,0,0,0],"sum_hessian":[5.098E3,1.894E3,3.204E3,7.88E2,1.106E3,1.336E3,1.868E3,3E2,4.88E2,5.1E2,5.96E2,1.015E3,3.21E2,9.19E2,9.49E2,1.92E2,1.08E2,2.34E2,2.54E2,3.54E2,1.56E2,4.01E2,1.95E2,8.33E2,1.82E2,1.47E2,1.74E2,6.14E2,3.05E2,3.52E2,5.97E2,1.62E2,3E1,6.7E1,4.1E1,2.2E2,1.4E1,2.46E2,8E0,2.1E2,1.44E2,6.5E1,9.1E1,3.58E2,4.3E1,5.2E1,1.43E2,5.47E2,2.86E2,1.05E2,7.7E1,7.8E1,6.9E1,1.69E2,5E0,3.4E1,5.8E2,1.8E1,2.87E2,1.23E2,2.29E2,2.23E2,3.74E2,7E0,1.55E2,1.3E1,1.7E1,6.6E1,1E0,9.7E1,1.23E2,7E0,7E0,3.4E1,2.12E2,2.7E2,8.8E1,1.7E1,2.6E1,6.4E1,7.9E1,5.16E2,3.1E1,2.77E2,9E0,7E1,3.5E1,2E0,7.5E1,4.8E1,3E1,2E0,6.7E1,5.6E1,1.13E2,1.61E2,4.19E2,1E0,1.7E1,1.22E2,1E0,9E0,2.2E2,9.6E1,2.78E2],"tree_param":{"num_deleted":"0","num_feature":"23","num_nodes":"105","size_leaf_vector":"0"}},{"base_weights":[1.1974535E4,1.4361343E4,1.02546045E4,1.6608383E4,1.1464484E4,9.7978955E3,1.5288734E4,1.5551967E4,2.2314615E4,1.0658184E4,1.5303392E4,8.692994E3,1.0831236E4,1.2422943E4,1.9919637E4,1.3609655E4,1.8304707E4,2.8714326E4,2.1039258E4,1.6755771E4,1.0268771E4,1.4004369E4,2.3234809E4,9.586366E3,7.93854E3,1.1851858E4,9.650968E3,1.3807456E4,1.0468891E4,2.0689895E4,1.0517281E4,1.2995973E4,1.61065E4,1.6623658E4,2.3399637E4,1.682397E4,3.1192424E4,1.9484172E4,2.4401988E4,8.765354E3,1.0935804E4,1.2665695E4,1.812659E4,1.2195475E4,2.5114918E4,9.210742E3,1.4123554E4,6.7280522E3,8.313508E3,9.348528E3,1.230121E4,9.215417E3,1.0507501E4,1.6198021E4,1.1527662E4,1.172418E4,7.1011406E3,1.1291629E4,2.166713E4,1.0555888E4,1.4012727E4,1.302137E4,1.8152938E4,1.3959973E4,2.0938361E4,1.825604E4,2.512244E4,3.1841021E4,8.785947E3,1.7884846E4,2.1761963E4,1.4931689E4,2.544924E4,7.907301E3,9.645327E3,1.3076071E4,1.0289293E4,1.457098E4,1.0530125E4,8.53039E3,1.9192818E4,8.42979E3,1.0377556E4,1.5683668E4,6.313813E3,7.550566E3,6.190629E3,8.1151777E3,9.940111E3,1.0055684E4,8.023073E3,1.1940982E4,1.5155351E4,9.776991E3,8.742774E3,9.358905E3,1.1235417E4,1.2841511E4,1.8120594E4,1.1639377E4,3.1385322E3,2.2643662E3,1.1877274E4,3.8307202E3,1.1036066E4,3.1666836E3,1.1842547E4,1.522696E4,2.2771893E4],"categories":[],"categories_nodes":[],"categories_segments":[],"categories_sizes":[],"default_left":[true,true,true,true,true,true,true,true,true,true,true,true,true,true,true,true,true,true,true,false,true,true,true,true,true,true,true,true,true,true,false,true,true,true,true,false,true,true,true,true,true,true,true,false,false,true,true,true,true,true,true,true,true,true,true,true,true,true,true,false,false,false,false,false,false,false,false,false,false,false,false,false,false,false,false,false,false,false,false,false,false,false,false,false,false,false,false,false,false,false,false,false,false,false,false,false,false,false,false,false,false,false,false,false,false,false,false,false,false],"id":2,"left_children":[1,3,5,7,9,11,13,15,17,19,21,23,25,27,29,31,33,35,37,-1,39,41,43,45,47,49,51,53,55,57,-1,59,61,63,65,-1,67,69,71,73,75,77,79,-1,-1,81,83,85,87,89,91,93,95,97,99,101,103,105,107,-1,-1,-1,-1,-1,-1,-1,-1,-1,-1,-1,-1,-1,-1,-1,-1,-1,-1,-1,-1,-1,-1,-1,-1,-1,-1,-1,-1,-1,-1,-1,-1,-1,-1,-1,-1,-1,-1,-1,-1,-1,-1,-1,-1,-1,-1,-1,-1,-1,-1],"loss_changes":[2.0784808E10,1.3694075E10,6.6717286E9,6.880723E9,2.7310162E9,3.0148035E9,3.0039818E9,5.17777E9,9.058222E8,1.670529E9,1.3231063E9,8.142684E8,1.5756657E9,2.72085E8,4.4868813E8,7.085097E8,3.1825428E9,3.002532E8,3.5078963E8,0E0,6.3821414E8,5.429801E8,1.2956979E8,8.9247744E8,2.717778E8,7.264092E8,1.4789837E8,2.8742554E8,2.0421478E8,5.2682342E8,0E0,1.05784115E9,4.833669E8,3.3509868E9,4.3636326E8,0E0,3.996672E7,2.2441984E7,7.621837E7,9.739469E7,5.614592E8,2.9007258E8,1.6369254E8,0E0,0E0,4.2006938E8,4.3707597E8,3.1055872E7,9.579725E7,2.9923328E7,4.6778778E8,3.2104448E7,7.377101E7,2.5428992E7,8.454144E6,4.262144E7,2.2797011E8,7.26016E6,1.8686771E8,0E0,0E0,0E0,0E0,0E0,0E0,0E0,0E0,0E0,0E0,0E0,0E0,0E0,0E0,0E0,0E0,0E0,0E0,0E0,0E0,0E0,0E0,0E0,0E0,0E0,0E0,0E0,0E0,0E0,0E0,0E0,0E0,0E0,0E0,0E0,0E0,0E0,0E0,0E0,0E0,0E0,0E0,0E0,0E0,0E0,0E0,0E0,0E0,0E0,0E0],"parents":[2147483647,0,0,1,1,2,2,3,3,4,4,5,5,6,6,7,7,8,8,9,9,10,10,11,11,12,12,13,13,14,14,15,15,16,16,17,17,18,18,20,20,21,21,22,22,23,23,24,24,25,25,26,26,27,27,28,28,29,29,31,31,32,32,33,33,34,34,36,36,37,37,38,38,39,39,40,40,41,41,42,42,45,45,46,46,47,47,48,48,49,49,50,50,51,51,52,52,53,53,54,54,55,55,56,56,57,57,58,58],"right_children":[2,4,6,8,10,12,14,16,18,20,22,24,26,28,30,32,34,36,38,-1,40,42,44,46,48,50,52,54,56,58,-1,60,62,64,66,-1,68,70,72,74,76,78,80,-1,-1,82,84,86,88,90,92,94,96,98,100,102,104,106,108,-1,-1,-1,-1,-1,-1,-1,-1,-1,-1,-1,-1,-1,-1,-1,-1,-1,-1,-1,-1,-1,-1,-1,-1,-1,-1,-1,-1,-1,-1,-1,-1,-1,-1,-1,-1,-1,-1,-1,-1,-1,-1,-1,-1,-1,-1,-1,-1,-1,-1],"split_conditions":[4.8104E4,2.25E1,5E-1,2.0195E3,2.0195E3,5E-1,2.0135E3,5E-1,1.35E1,3.5E0,5E-1,2.15E1,3.05E1,1.55E1,5E-1,5E-1,5E-1,5E-1,5E-1,5.0267314E3,5E-1,5E-1,1.26E2,4.18E2,2.0115E3,2.0115E3,5E-1,6.48435E4,2.05E1,2.575E2,3.1551846E3,2.0125E3,8.95E1,2.0175E3,9.8E1,5.0471914E3,5E-1,5E-1,5.6875E3,2E1,8.75E1,3.75E1,8E0,3.6586426E3,7.5344756E3,1.9E1,2.25E1,2.35E1,5E-1,7.9638E4,2.9E1,6.1829E4,2.0145E3,2.0105E3,5E-1,4.84115E4,5E-1,5.6519E4,9.8E1,3.1667664E3,4.2038184E3,3.9064111E3,5.4458813E3,4.187992E3,6.281509E3,5.476812E3,7.536732E3,9.552307E3,2.6357842E3,5.365454E3,6.5285894E3,4.479507E3,7.6347725E3,2.3721904E3,2.8935981E3,3.9228215E3,3.086788E3,4.3712944E3,3.1590376E3,2.559117E3,5.7578457E3,2.528937E3,3.1132668E3,4.7051006E3,1.8941439E3,2.26517E3,1.8571887E3,2.4345535E3,2.9820334E3,3.016705E3,2.406922E3,3.582295E3,4.5466055E3,2.9330974E3,2.6228325E3,2.8076716E3,3.3706252E3,3.8524534E3,5.436178E3,3.4918132E3,9.415597E2,6.793099E2,3.5631824E3,1.1492161E3,3.31082E3,9.500051E2,3.5527642E3,4.5680884E3,6.831568E3],"split_indices":[0,17,15,19,19,2,19,5,17,22,5,17,18,17,12,15,15,9,5,0,2,9,20,20,19,19,7,0,22,21,0,19,20,19,20,0,14,7,0,22,20,18,22,0,0,22,22,17,5,0,22,0,19,19,12,0,2,0,20,0,0,0,0,0,0,0,0,0,0,0,0,0,0,0,0,0,0,0,0,0,0,0,0,0,0,0,0,0,0,0,0,0,0,0,0,0,0,0,0,0,0,0,0,0,0,0,0,0,0],"split_type":[0,0,0,0,0,0,0,0,0,0,0,0,0,0,0,0,0,0,0,0,0,0,0,0,0,0,0,0,0,0,0,0,0,0,0,0,0,0,0,0,0,0,0,0,0,0,0,0,0,0,0,0,0,0,0,0,0,0,0,0,0,0,0,0,0,0,0,0,0,0,0,0,0,0,0,0,0,0,0,0,0,0,0,0,0,0,0,0,0,0,0,0,0,0,0,0,0,0,0,0,0,0,0,0,0,0,0,0,0],"sum_hessian":[5.098E3,2.132E3,2.966E3,1.198E3,9.34E2,2.722E3,2.44E2,1.014E3,1.84E2,7.75E2,1.59E2,1.32E3,1.402E3,1.53E2,9.1E1,5.98E2,4.16E2,2.7E1,1.57E2,4.4E1,7.31E2,1.39E2,2E1,5.99E2,7.21E2,7.47E2,6.55E2,8.6E1,6.7E1,8.3E1,8E0,4.85E2,1.13E2,3.16E2,1E2,6E0,2.1E1,1.12E2,4.5E1,2.29E2,5.02E2,1.08E2,3.1E1,4E0,1.6E1,5.56E2,4.3E1,1.75E2,5.46E2,1.17E2,6.3E2,4.42E2,2.13E2,3.9E1,4.7E1,4.7E1,2E1,9E0,7.4E1,1.46E2,3.39E2,4.8E1,6.5E1,1.98E2,1.18E2,2.8E1,7.2E1,2E1,1E0,7.1E1,4.1E1,6E0,3.9E1,1.21E2,1.08E2,1.12E2,3.9E2,5.4E1,5.4E1,4E0,2.7E1,3.38E2,2.18E2,3.5E1,8E0,6.4E1,1.11E2,4.92E2,5.4E1,7.2E1,4.5E1,5.64E2,6.6E1,1.93E2,2.49E2,8.8E1,1.25E2,1.7E1,2.2E1,4.6E1,1E0,1E0,4.6E1,1.2E1,8E0,1E0,8E0,1.3E1,6.1E1],"tree_param":{"num_deleted":"0","num_feature":"23","num_nodes":"109","size_leaf_vector":"0"}},{"base_weights":[8.42421E3,7.497247E3,1.0902073E4,7.0007056E3,1.1760172E4,1.3721477E4,8.892148E3,8.0834966E3,6.317761E3,9.361772E3,1.442487E4,1.2335192E4,1.62788E4,8.248623E3,1.25344E4,7.5536665E3,1.0835362E4,5.7947754E3,7.0279556E3,1.1031348E4,7.8044033E3,1.0346093E4,1.6412031E4,1.080203E4,1.5165108E4,1.3652672E4,1.8321908E4,1.0511451E4,7.544062E3,1.1138206E4,1.6025868E4,7.1001216E3,9.723646E3,2.3299193E4,8.480892E3,6.2161357E3,5.279017E3,6.6101865E3,8.644236E3,9.730133E3,1.4583786E4,6.223572E3,8.520392E3,1.1736061E4,6.29639E3,1.8052865E4,1.1911351E4,9.662019E3,1.3162801E4,2.206533E4,1.3931754E4,1.5326417E4,1.0246503E4,1.5872727E4,2.0128455E4,9.083393E3,1.2611361E4,9.0520625E3,6.9929043E3,1.4110715E4,9.687477E3,1.3091316E4,1.9825846E4,6.8138613E3,1.0489769E4,1.0593452E4,4.7093965E3,7.090639E3,2.414341E4,1.3175035E4,5.958026E3,6.5522524E3,5.685262E3,5.018577E3,6.0065947E3,6.3225635E3,7.6476484E3,9.154172E3,6.766782E3,1.3373191E4,8.494579E3,1.6944182E4,2.2254478E3,8.061902E3,3.191999E3,8.782497E3,3.1992688E3,1.8935547E3,1.1916719E4,3.1033462E3,9.144617E3,1.8241838E4,9.951299E2,1.2283586E4,3.8463127E3,9.26452E3,1.5787611E4,1.0881777E4,1.6847422E4,1.7068475E4,2.9214295E4,1.6318984E4,1.2697769E4,2.0144922E4,1.2133429E4,1.508143E3,1.1399789E4,1.6762723E4,4.3322197E3,1.0993383E4,7.932892E3,5.2000137E3,1.3160615E4,9.115136E3,3.1543547E3,6.1864224E3,8.145967E3,3.796287E3,1.4361412E4,6.46901E3,1.1256678E4,5.7210586E3,2.0588002E4],"categories":[],"categories_nodes":[],"categories_segments":[],"categories_sizes":[],"default_left":[true,true,true,true,true,true,true,true,true,true,true,true,true,true,true,true,true,true,true,true,true,true,true,true,true,true,true,true,true,true,true,true,true,true,true,true,true,true,true,true,true,true,true,true,true,true,true,true,true,true,true,true,true,true,false,true,true,true,true,true,true,false,true,false,false,false,false,false,false,false,false,false,false,false,false,false,false,false,false,false,false,false,false,false,false,false,false,false,false,false,false,false,false,false,false,false,false,false,false,false,false,false,false,false,false,false,false,false,false,false,false,false,false,false,false,false,false,false,false,false,false,false,false],"id":3,"left_children":[1,3,5,7,9,11,13,15,17,19,21,23,25,27,29,31,33,35,37,39,41,43,45,47,49,51,53,55,57,59,61,63,65,67,69,71,73,75,77,79,81,83,85,87,89,91,93,95,97,99,101,103,105,107,-1,109,111,113,115,117,119,-1,121,-1,-1,-1,-1,-1,-1,-1,-1,-1,-1,-1,-1,-1,-1,-1,-1,-1,-1,-1,-1,-1,-1,-1,-1,-1,-1,-1,-1,-1,-1,-1,-1,-1,-1,-1,-1,-1,-1,-1,-1,-1,-1,-1,-1,-1,-1,-1,-1,-1,-1,-1,-1,-1,-1,-1,-1,-1,-1,-1,-1],"loss_changes":[1.1630117E10,7.779156E9,7.7321503E9,2.4106762E9,2.3318856E9,1.8376704E9,1.7998356E9,1.7902469E9,7.1920845E8,4.49536E8,1.29724E9,1.4718853E9,8.175821E8,1.0255524E9,4.0647475E8,9.938821E8,5.818276E9,2.2449357E8,5.2558643E8,3.0647808E8,7.147674E7,2.7510016E8,6.711521E8,5.4026445E8,7.989473E8,3.6175462E8,1.6278323E8,3.712512E8,3.7886976E8,2.4709837E8,9.729331E7,7.989002E8,7.526134E8,2.6668032E8,1.9821312E9,7.801856E7,7.199027E7,1.575424E8,1.0463949E8,2.1948877E8,6.6238515E8,1.860416E8,7.37152E7,5.745101E7,1.353223E8,2.5906176E8,5.7826816E7,2.7010662E8,4.7223808E8,1.443584E8,1.2566118E8,6.633134E8,3.1537587E8,4.5120205E8,0E0,1.3253478E8,1.8801869E8,2.2953984E7,3.1599616E8,1.5296512E7,2.4535706E8,0E0,1.1215872E7,0E0,0E0,0E0,0E0,0E0,0E0,0E0,0E0,0E0,0E0,0E0,0E0,0E0,0E0,0E0,0E0,0E0,0E0,0E0,0E0,0E0,0E0,0E0,0E0,0E0,0E0,0E0,0E0,0E0,0E0,0E0,0E0,0E0,0E0,0E0,0E0,0E0,0E0,0E0,0E0,0E0,0E0,0E0,0E0,0E0,0E0,0E0,0E0,0E0,0E0,0E0,0E0,0E0,0E0,0E0,0E0,0E0,0E0,0E0,0E0],"parents":[2147483647,0,0,1,1,2,2,3,3,4,4,5,5,6,6,7,7,8,8,9,9,10,10,11,11,12,12,13,13,14,14,15,15,16,16,17,17,18,18,19,19,20,20,21,21,22,22,23,23,24,24,25,25,26,26,27,27,28,28,29,29,30,30,31,31,32,32,33,33,34,34,35,35,36,36,37,37,38,38,39,39,40,40,41,41,42,42,43,43,44,44,45,45,46,46,47,47,48,48,49,49,50,50,51,51,52,52,53,53,55,55,56,56,57,57,58,58,59,59,60,60,62,62],"right_children":[2,4,6,8,10,12,14,16,18,20,22,24,26,28,30,32,34,36,38,40,42,44,46,48,50,52,54,56,58,60,62,64,66,68,70,72,74,76,78,80,82,84,86,88,90,92,94,96,98,100,102,104,106,108,-1,110,112,114,116,118,120,-1,122,-1,-1,-1,-1,-1,-1,-1,-1,-1,-1,-1,-1,-1,-1,-1,-1,-1,-1,-1,-1,-1,-1,-1,-1,-1,-1,-1,-1,-1,-1,-1,-1,-1,-1,-1,-1,-1,-1,-1,-1,-1,-1,-1,-1,-1,-1,-1,-1,-1,-1,-1,-1,-1,-1,-1,-1,-1,-1,-1,-1],"split_conditions":[2.0175E3,5E-1,2.85E1,5E-1,5E-1,5E-1,5E-1,2.95E1,2.0135E3,5.03775E4,2.0115E3,2.0195E3,2.0185E3,1.84755E4,2.0195E3,2.0145E3,3.05E1,6.8189E4,5E-1,6.155E2,2.0105E3,5E-1,5.7512E4,5E-1,5.534E3,5.21E2,2.2E2,5E-1,1.105E2,7.55E1,3.65E1,4.18E2,2.65E1,1.65E1,2.45E1,2.55E1,3.65E1,5E-1,5.9E2,1.45E1,1.3E1,1.95E2,5E-1,1.01805E4,2.45E1,5E-1,9.91855E4,4.19E2,1.9E1,5E-1,2.25E1,2.45E1,7E0,2.065E2,6.0385366E3,2.65E1,2.05E1,3.25E1,5E-1,6.4595E3,1.66E2,3.927395E3,1.14E2,2.0441584E3,3.1469307E3,3.178036E3,1.412819E3,2.127192E3,7.2430234E3,3.9525107E3,1.7874078E3,1.9656758E3,1.7055787E3,1.5055732E3,1.8019785E3,1.8967692E3,2.2942947E3,2.7462517E3,2.0300348E3,4.0119575E3,2.5483738E3,5.083255E3,6.6763434E2,2.4185706E3,9.5759973E2,2.6347493E3,9.597807E2,5.680664E2,3.5750159E3,9.310039E2,2.7433853E3,5.472552E3,2.9853897E2,3.685076E3,1.1538939E3,2.779356E3,4.7362837E3,3.2645334E3,5.0542266E3,5.1205425E3,8.764289E3,4.8956953E3,3.8093308E3,6.0434766E3,3.6400288E3,4.524429E2,3.4199368E3,5.028817E3,1.299666E3,3.298015E3,2.3798677E3,1.5600042E3,3.9481848E3,2.7345408E3,9.4630646E2,1.8559268E3,2.44379E3,1.1388862E3,4.308424E3,1.940703E3,3.3770034E3,1.7163176E3,6.176401E3],"split_indices":[19,15,18,12,5,5,5,22,19,0,19,19,19,0,19,19,22,0,5,21,19,2,0,7,0,21,20,8,20,20,22,20,22,17,18,17,22,7,21,17,22,20,4,0,22,14,0,20,22,15,18,18,17,20,0,17,17,17,8,0,20,0,20,0,0,0,0,0,0,0,0,0,0,0,0,0,0,0,0,0,0,0,0,0,0,0,0,0,0,0,0,0,0,0,0,0,0,0,0,0,0,0,0,0,0,0,0,0,0,0,0,0,0,0,0,0,0,0,0,0,0,0,0],"split_type":[0,0,0,0,0,0,0,0,0,0,0,0,0,0,0,0,0,0,0,0,0,0,0,0,0,0,0,0,0,0,0,0,0,0,0,0,0,0,0,0,0,0,0,0,0,0,0,0,0,0,0,0,0,0,0,0,0,0,0,0,0,0,0,0,0,0,0,0,0,0,0,0,0,0,0,0,0,0,0,0,0,0,0,0,0,0,0,0,0,0,0,0,0,0,0,0,0,0,0,0,0,0,0,0,0,0,0,0,0,0,0,0,0,0,0,0,0,0,0,0,0,0,0],"sum_hessian":[5.098E3,3.713E3,1.385E3,3.328E3,3.85E2,5.74E2,8.11E2,1.283E3,2.045E3,2.05E2,1.8E2,3.76E2,1.98E2,6.92E2,1.19E2,1.079E3,2.04E2,1.183E3,8.62E2,9.6E1,1.09E2,6.1E1,1.19E2,2.47E2,1.29E2,9E1,1.08E2,1.61E2,5.31E2,8.8E1,3.1E1,8.96E2,1.83E2,3.1E1,1.73E2,6.45E2,5.38E2,6.89E2,1.73E2,7.3E1,2.3E1,3.7E1,7.2E1,4.4E1,1.7E1,8.5E1,3.4E1,1.7E2,7.7E1,1.7E1,1.12E2,5.8E1,3.2E1,5E1,5.8E1,9.9E1,6.2E1,1.38E2,3.93E2,2.6E1,6.2E1,2E1,1.1E1,8.29E2,6.7E1,1.55E2,2.8E1,2E0,2.9E1,5.9E1,1.14E2,3.88E2,2.57E2,4.02E2,1.36E2,5.45E2,1.44E2,1.33E2,4E1,1.6E1,5.7E1,1.9E1,4E0,2.2E1,1.5E1,6.8E1,4E0,1E0,4.3E1,9E0,8E0,8.4E1,1E0,3.2E1,2E0,1.62E2,8E0,5E1,2.7E1,1.2E1,5E0,3.4E1,7.8E1,2.1E1,3.7E1,4E0,2.8E1,4.6E1,4E0,3.4E1,6.5E1,5E0,5.7E1,1.36E2,2E0,2.35E2,1.58E2,1E0,2.5E1,2.2E1,4E1,1E0,1E1],"tree_param":{"num_deleted":"0","num_feature":"23","num_nodes":"123","size_leaf_vector":"0"}},{"base_weights":[5.9331597E3,8.496689E3,5.4284424E3,1.0626387E4,6.9817065E3,4.8871074E3,6.9018267E3,9.020788E3,1.24153E4,5.635855E3,8.1133003E3,5.4225015E3,4.0149563E3,5.978713E3,9.206836E3,7.6279526E3,1.219958E4,1.29214375E4,2.4314714E3,4.8691665E3,7.2968203E3,1.0559876E4,7.2817544E3,6.3109775E3,4.6293774E3,5.2631997E3,3.7058706E3,5.5194277E3,8.484511E3,1.1420972E4,7.382214E3,5.7651826E3,9.576618E3,1.638629E4,8.678312E3,1.5029129E4,9.496246E3,5.7214746E2,2.5923684E3,4.3531533E3,6.0421304E3,1.0386183E4,6.2654272E3,8.521838E3,1.2395296E4,6.136658E3,1.0066969E4,6.0743613E3,9.612891E3,7.215858E3,4.535967E3,2.7373235E3,5.900322E3,4.1222944E3,3.167185E3,5.924485E3,4.2725356E3,7.801539E3,1.4265698E4,1.0430391E4,1.4030493E4,9.425409E3,6.4625674E3,1.6802479E3,6.418001E3,2.2046584E4,8.806347E3,1.7547984E4,8.462256E3,4.316052E3,9.518984E3,1.1560314E4,1.8178176E4,4.312959E3,1.0677603E4,5.254071E3,3.9688486E3,4.6126436E3,6.964326E3,7.1830103E3,2.187226E4,1.373774E3,6.7271167E3,1.2377792E4,7.595117E3,1.4757735E4,7.80729E3,5.0110264E3,8.690227E3,1.1122206E4,7.16272E3,5.302038E3,6.8902646E3,1.0889582E4,1.12785645E2,3.613744E3,4.8356357E3,-1.3343744E3,2.938978E3,4.9359355E3,8.424734E3,4.946552E3,3.8134558E3,2.2596667E3,3.3290854E3,5.6330947E3,8.345547E3,4.393658E3,1.4882927E2,8.304626E3,3.2541257E3,1.5955183E4,3.8788508E3,6.2448566E2,1.0895824E4,9.7878125E3,1.647833E4,1.1018803E4,5.30927E3,5.022199E3,8.0112812E3],"categories":[],"categories_nodes":[],"categories_segments":[],"categories_sizes":[],"default_left":[true,true,true,true,true,true,true,true,true,true,true,true,true,true,true,true,true,true,true,true,true,true,true,true,true,true,true,true,true,true,true,true,true,true,true,true,true,false,false,true,true,true,true,true,true,true,true,true,true,false,true,true,true,true,true,true,true,true,true,true,true,true,true,false,false,false,false,false,false,false,false,false,false,false,false,false,false,false,false,false,false,false,false,false,false,false,false,false,false,false,false,false,false,false,false,false,false,false,false,false,false,false,false,false,false,false,false,false,false,false,false,false,false,false,false,false,false,false,false,false,false],"id":4,"left_children":[1,3,5,7,9,11,13,15,17,19,21,23,25,27,29,31,33,35,37,39,41,43,45,47,49,51,53,55,57,59,61,63,65,67,69,71,73,-1,-1,75,77,79,81,83,85,87,89,91,93,-1,95,97,99,101,103,105,107,109,111,113,115,117,119,-1,-1,-1,-1,-1,-1,-1,-1,-1,-1,-1,-1,-1,-1,-1,-1,-1,-1,-1,-1,-1,-1,-1,-1,-1,-1,-1,-1,-1,-1,-1,-1,-1,-1,-1,-1,-1,-1,-1,-1,-1,-1,-1,-1,-1,-1,-1,-1,-1,-1,-1,-1,-1,-1,-1,-1,-1,-1],"loss_changes":[6.5512407E9,2.6263552E9,3.3664123E9,8.8181146E8,7.035699E8,1.4355579E9,2.3770112E9,7.304632E8,7.821476E8,2.5481574E8,4.622336E8,1.3315072E9,4.3999846E8,8.957399E8,1.228673E9,4.2393805E8,6.686336E8,9.618227E8,1.20922E6,6.993485E7,1.5797018E8,1.3751245E8,5.792799E8,6.5101414E8,2.1467136E8,3.6042342E8,2.0184474E8,3.2570368E8,3.8225306E8,2.2847488E8,2.7919053E8,1.758866E8,4.1098086E8,7.243162E7,7.626726E7,8.0573645E8,3.2747008E8,0E0,0E0,1.8617088E7,2.851648E7,4.315616E8,1.1497216E8,2.7484416E7,2.3162624E8,3.7323827E8,9.502106E7,4.9908736E8,7.1436544E8,0E0,2.5639936E8,4.4154464E7,4.112343E8,1.178368E8,5.4480896E7,3.212452E8,8.625434E7,2.3377869E8,1.4869325E8,4.9067008E8,2.2297293E8,2.9566413E8,2.4529766E8,0E0,0E0,0E0,0E0,0E0,0E0,0E0,0E0,0E0,0E0,0E0,0E0,0E0,0E0,0E0,0E0,0E0,0E0,0E0,0E0,0E0,0E0,0E0,0E0,0E0,0E0,0E0,0E0,0E0,0E0,0E0,0E0,0E0,0E0,0E0,0E0,0E0,0E0,0E0,0E0,0E0,0E0,0E0,0E0,0E0,0E0,0E0,0E0,0E0,0E0,0E0,0E0,0E0,0E0,0E0,0E0,0E0,0E0],"parents":[2147483647,0,0,1,1,2,2,3,3,4,4,5,5,6,6,7,7,8,8,9,9,10,10,11,11,12,12,13,13,14,14,15,15,16,16,17,17,18,18,19,19,20,20,21,21,22,22,23,23,24,24,25,25,26,26,27,27,28,28,29,29,30,30,31,31,32,32,33,33,34,34,35,35,36,36,39,39,40,40,41,41,42,42,43,43,44,44,45,45,46,46,47,47,48,48,50,50,51,51,52,52,53,53,54,54,55,55,56,56,57,57,58,58,59,59,60,60,61,61,62,62],"right_children":[2,4,6,8,10,12,14,16,18,20,22,24,26,28,30,32,34,36,38,40,42,44,46,48,50,52,54,56,58,60,62,64,66,68,70,72,74,-1,-1,76,78,80,82,84,86,88,90,92,94,-1,96,98,100,102,104,106,108,110,112,114,116,118,120,-1,-1,-1,-1,-1,-1,-1,-1,-1,-1,-1,-1,-1,-1,-1,-1,-1,-1,-1,-1,-1,-1,-1,-1,-1,-1,-1,-1,-1,-1,-1,-1,-1,-1,-1,-1,-1,-1,-1,-1,-1,-1,-1,-1,-1,-1,-1,-1,-1,-1,-1,-1,-1,-1,-1,-1,-1,-1],"split_conditions":[2.57245E4,5E-1,5E-1,1.35E1,2.0185E3,6.52395E4,2.0155E3,6.18E2,3.25E1,5E-1,3.695E2,3.05E1,2.45E1,5E-1,2.65E1,2.0165E3,6.645E2,5.385E2,4.701E3,5E-1,3.4E1,1.9E1,6.25E2,4.175E2,3.5E0,6E0,8.0863E4,7.78925E4,2.65E1,5E-1,5E-1,4.5E0,2.1095E3,2.017E3,7.435E2,4.225E2,6E0,1.7164424E2,7.777106E2,3.3E2,1.45E1,5E-1,2.75E1,3.5E0,2.09E2,3.15E1,1.87905E4,5E-1,4.48E2,2.1647576E3,1.05E1,1.155E2,2.0125E3,8.95E1,2.0105E3,5E-1,4.145E2,8.52875E4,1.75E1,2.79815E4,2.05E1,6.40325E4,1.85E1,5.040744E2,1.9254004E3,6.6139756E3,2.641904E3,5.2643955E3,2.5386768E3,1.2948156E3,2.8556953E3,3.4680945E3,5.453453E3,1.2938877E3,3.203281E3,1.5762213E3,1.1906547E3,1.3837931E3,2.0892979E3,2.154903E3,6.561678E3,4.1213223E2,2.0181351E3,3.7133376E3,2.2785352E3,4.427321E3,2.342187E3,1.503308E3,2.607068E3,3.3366619E3,2.1488162E3,1.5906115E3,2.0670796E3,3.2668748E3,3.3835693E1,1.0841232E3,1.4506908E3,-4.0031235E2,8.816934E2,1.4807808E3,2.5274204E3,1.4839656E3,1.1440367E3,6.779E2,9.9872565E2,1.6899285E3,2.503664E3,1.3180975E3,4.464878E1,2.491388E3,9.7623773E2,4.786555E3,1.1636553E3,1.873457E2,3.2687473E3,2.9363438E3,4.943499E3,3.3056409E3,1.5927811E3,1.5066598E3,2.4033845E3],"split_indices":[0,12,5,22,19,0,19,21,18,7,21,18,18,15,18,19,21,21,0,8,20,22,21,20,22,17,0,0,18,15,6,22,0,19,21,21,17,0,0,21,22,4,18,22,20,22,0,8,20,0,22,21,19,20,19,16,20,0,17,0,18,0,22,0,0,0,0,0,0,0,0,0,0,0,0,0,0,0,0,0,0,0,0,0,0,0,0,0,0,0,0,0,0,0,0,0,0,0,0,0,0,0,0,0,0,0,0,0,0,0,0,0,0,0,0,0,0,0,0,0,0],"split_type":[0,0,0,0,0,0,0,0,0,0,0,0,0,0,0,0,0,0,0,0,0,0,0,0,0,0,0,0,0,0,0,0,0,0,0,0,0,0,0,0,0,0,0,0,0,0,0,0,0,0,0,0,0,0,0,0,0,0,0,0,0,0,0,0,0,0,0,0,0,0,0,0,0,0,0,0,0,0,0,0,0,0,0,0,0,0,0,0,0,0,0,0,0,0,0,0,0,0,0,0,0,0,0,0,0,0,0,0,0,0,0,0,0,0,0,0,0,0,0,0,0],"sum_hessian":[5.098E3,8.36E2,4.262E3,3.45E2,4.91E2,3.12E3,1.142E3,1.85E2,1.6E2,2.27E2,2.64E2,1.93E3,1.19E3,8.18E2,3.24E2,1.31E2,5.4E1,1.52E2,8E0,1.58E2,6.9E1,6.4E1,2E2,9.07E2,1.023E3,2.33E2,9.57E2,6.94E2,1.24E2,1.44E2,1.8E2,6.9E1,6.2E1,2.3E1,3.1E1,9.2E1,6E1,1E0,7E0,1.13E2,4.5E1,1.5E1,5.4E1,3.3E1,3.1E1,1.44E2,5.6E1,8.49E2,5.8E1,3.3E1,9.9E2,4.8E1,1.85E2,5.36E2,4.21E2,5.21E2,1.73E2,1.13E2,1.1E1,1.08E2,3.6E1,5.3E1,1.27E2,1E1,5.9E1,2E0,6E1,1.9E1,4E0,6E0,2.5E1,4.6E1,4.6E1,1.2E1,4.8E1,3E1,8.3E1,2E1,2.5E1,1.3E1,2E0,5E0,4.9E1,4E0,2.9E1,1.9E1,1.2E1,1.02E2,4.2E1,3.9E1,1.7E1,4.4E2,4.09E2,5.1E1,7E0,2.46E2,7.44E2,2E0,4.6E1,1.36E2,4.9E1,1.42E2,3.94E2,6.6E1,3.55E2,4.68E2,5.3E1,1.68E2,5E0,1.01E2,1.2E1,9E0,2E0,5E0,1.03E2,1.5E1,2.1E1,3.7E1,1.6E1,6.8E1,5.9E1],"tree_param":{"num_deleted":"0","num_feature":"23","num_nodes":"121","size_leaf_vector":"0"}},{"base_weights":[4.179358E3,3.9291582E3,7.224081E3,3.4817388E3,5.101472E3,1.0545127E4,6.3758726E3,3.1502664E3,4.290497E3,6.079792E3,3.932068E3,1.1089495E4,-2.161959E3,5.720509E3,9.124685E3,4.55507E3,2.9581543E3,4.941313E3,3.1020803E3,5.553007E3,8.415174E3,2.747089E3,4.3182646E3,1.43801875E4,8.519019E3,-2.7707292E3,-1.6782422E2,4.796942E3,7.397686E3,6.9778936E3,1.0539591E4,3.5930566E3,7.365534E3,2.8728132E3,5.722037E3,4.356517E3,6.191061E3,4.300431E3,2.549127E3,5.150916E3,1.0100044E4,7.138692E3,1.0263711E4,1.9121965E3,4.099461E3,4.030593E3,6.738388E3,7.7551E3,1.6737945E4,9.186674E3,-4.542002E2,4.1094185E3,6.3547144E3,5.4930356E3,9.26318E3,7.381495E3,1.4231152E3,1.2475133E4,8.657731E3,2.7736902E3,5.2858066E3,1.1260455E4,6.164081E3,5.2912266E3,2.8055764E3,2.8319185E3,1.0979444E4,4.14553E3,1.0029989E4,8.203158E3,4.645963E3,5.6413984E3,3.4843872E3,2.4152207E3,7.4582026E3,4.0626829E3,6.437389E3,6.181111E3,1.3434853E4,7.734783E3,-9.7498604E1,1.1619966E4,2.7941082E3,1.2204473E3,2.447447E3,5.878547E2,4.850074E3,4.4467056E3,2.8418086E3,7.4741953E3,4.030752E3,-6.4472656E0,8.618211E3,2.7597342E4,1.4272139E4,1.1277951E4,6.1716177E3,5.964824E2,-1.0032552E3,4.4329565E3,1.926459E3,8.0916997E3,4.506931E3,1.478896E3,5.738699E3,5.56345E3,1.0215721E4,2.3180605E3,7.994459E3,2.1082227E2,1.9238506E3,1.4130659E4,4.803654E3],"categories":[],"categories_nodes":[],"categories_segments":[],"categories_sizes":[],"default_left":[true,true,true,true,true,true,true,true,true,true,true,true,true,true,true,true,true,true,true,true,true,true,true,true,true,false,false,true,true,true,true,true,true,true,true,true,true,true,true,true,true,true,true,true,true,true,true,true,true,true,true,true,true,true,true,true,true,true,false,false,false,false,false,false,false,false,false,false,false,false,false,false,false,false,false,false,false,false,false,false,false,false,false,false,false,false,false,false,false,false,false,false,false,false,false,false,false,false,false,false,false,false,false,false,false,false,false,false,false,false,false,false,false],"id":5,"left_children":[1,3,5,7,9,11,13,15,17,19,21,23,25,27,29,31,33,35,37,39,41,43,45,47,49,-1,-1,51,53,55,57,59,61,63,65,67,69,71,73,75,77,79,81,83,85,87,89,91,93,95,97,99,101,103,105,107,109,111,-1,-1,-1,-1,-1,-1,-1,-1,-1,-1,-1,-1,-1,-1,-1,-1,-1,-1,-1,-1,-1,-1,-1,-1,-1,-1,-1,-1,-1,-1,-1,-1,-1,-1,-1,-1,-1,-1,-1,-1,-1,-1,-1,-1,-1,-1,-1,-1,-1,-1,-1,-1,-1,-1,-1],"loss_changes":[3.8559826E9,2.4548065E9,1.0201047E9,9.0198016E8,1.4633595E9,5.56609E8,5.0625843E8,6.412534E8,7.50379E8,8.218235E8,2.6042982E8,5.0343526E8,4.390884E6,3.564073E8,1.0263142E8,7.576095E8,4.8762266E8,4.393093E8,2.2294656E8,1.0065756E9,2.2876262E8,1.6039462E8,2.8404275E8,3.5442637E8,2.6777728E8,0E0,0E0,1.5167258E8,2.6179123E8,4.778509E7,1.219328E7,2.8770074E8,2.7219763E8,3.2256307E8,9.261623E8,4.8271974E8,5.8677504E8,1.0071501E8,1.4238157E8,7.214377E8,5.181266E8,3.4151526E8,4.7406694E8,3.1817376E7,1.4475706E8,1.8622003E8,6.1518976E7,6.704627E7,1.9522458E8,1.8891469E8,2.9059542E6,7.480013E7,1.2080026E8,3.687488E7,9.470362E7,5.595725E7,1.415523E6,1.0992589E8,0E0,0E0,0E0,0E0,0E0,0E0,0E0,0E0,0E0,0E0,0E0,0E0,0E0,0E0,0E0,0E0,0E0,0E0,0E0,0E0,0E0,0E0,0E0,0E0,0E0,0E0,0E0,0E0,0E0,0E0,0E0,0E0,0E0,0E0,0E0,0E0,0E0,0E0,0E0,0E0,0E0,0E0,0E0,0E0,0E0,0E0,0E0,0E0,0E0,0E0,0E0,0E0,0E0,0E0,0E0],"parents":[2147483647,0,0,1,1,2,2,3,3,4,4,5,5,6,6,7,7,8,8,9,9,10,10,11,11,12,12,13,13,14,14,15,15,16,16,17,17,18,18,19,19,20,20,21,21,22,22,23,23,24,24,27,27,28,28,29,29,30,30,31,31,32,32,33,33,34,34,35,35,36,36,37,37,38,38,39,39,40,40,41,41,42,42,43,43,44,44,45,45,46,46,47,47,48,48,49,49,50,50,51,51,52,52,53,53,54,54,55,55,56,56,57,57],"right_children":[2,4,6,8,10,12,14,16,18,20,22,24,26,28,30,32,34,36,38,40,42,44,46,48,50,-1,-1,52,54,56,58,60,62,64,66,68,70,72,74,76,78,80,82,84,86,88,90,92,94,96,98,100,102,104,106,108,110,112,-1,-1,-1,-1,-1,-1,-1,-1,-1,-1,-1,-1,-1,-1,-1,-1,-1,-1,-1,-1,-1,-1,-1,-1,-1,-1,-1,-1,-1,-1,-1,-1,-1,-1,-1,-1,-1,-1,-1,-1,-1,-1,-1,-1,-1,-1,-1,-1,-1,-1,-1,-1,-1,-1,-1],"split_conditions":[2.0195E3,5E-1,2.35E1,2.0165E3,5.8151E4,7.34E2,5E-1,2.25E1,2.65E1,5E-1,2.0115E3,1.75E1,5E-1,2.0205E3,1.35E1,1.55E1,5E-1,1.85E1,1.105E2,5E-1,6.135E2,4.225E2,5E-1,6.5E0,5.2548E4,-8.312188E2,-5.0347267E1,5E-1,5E-1,3.15E1,5E-1,5E-1,1.51E2,1.38555E4,1.85E1,4.185E2,5.23E2,1.35E1,5E1,1.85E1,1.7E2,5.995E2,3.255E2,5E-1,6.5E0,8.2097E4,5.345E2,9.75E1,1.35E1,5.39E2,5.80495E4,3.15E1,2.075E2,5E-1,1.95E1,1.75E1,2.34545E4,6.515E2,2.5973196E3,8.321071E2,1.5857421E3,3.3781367E3,1.8492244E3,1.587368E3,8.41673E2,8.4957556E2,3.2938335E3,1.2436589E3,3.0089968E3,2.4609475E3,1.393789E3,1.6924196E3,1.0453162E3,7.245662E2,2.237461E3,1.2188049E3,1.9312168E3,1.8543334E3,4.0304558E3,2.320435E3,-2.9249582E1,3.48599E3,8.382325E2,3.661342E2,7.3423413E2,1.7635641E2,1.4550223E3,1.3340117E3,8.525426E2,2.2422588E3,1.2092256E3,-1.9341798E0,2.5854634E3,8.279203E3,4.2816416E3,3.3833855E3,1.8514854E3,1.7894473E2,-3.0097656E2,1.329887E3,5.7793774E2,2.42751E3,1.3520793E3,4.4366882E2,1.7216099E3,1.6690352E3,3.0647163E3,6.954182E2,2.398338E3,6.324668E1,5.771552E2,4.2391978E3,1.4410962E3],"split_indices":[19,5,18,19,0,21,5,18,17,15,19,22,3,19,22,17,16,22,20,16,21,21,15,17,0,0,0,7,8,17,12,15,20,0,17,20,21,22,17,22,21,21,20,14,17,0,21,20,17,21,0,17,20,1,17,17,0,21,0,0,0,0,0,0,0,0,0,0,0,0,0,0,0,0,0,0,0,0,0,0,0,0,0,0,0,0,0,0,0,0,0,0,0,0,0,0,0,0,0,0,0,0,0,0,0,0,0,0,0,0,0,0,0],"split_type":[0,0,0,0,0,0,0,0,0,0,0,0,0,0,0,0,0,0,0,0,0,0,0,0,0,0,0,0,0,0,0,0,0,0,0,0,0,0,0,0,0,0,0,0,0,0,0,0,0,0,0,0,0,0,0,0,0,0,0,0,0,0,0,0,0,0,0,0,0,0,0,0,0,0,0,0,0,0,0,0,0,0,0,0,0,0,0,0,0,0,0,0,0,0,0,0,0,0,0,0,0,0,0,0,0,0,0,0,0,0,0,0,0],"sum_hessian":[5.098E3,4.713E3,3.85E2,3.414E3,1.299E3,7.6E1,3.09E2,2.425E3,9.89E2,7.05E2,5.94E2,7.3E1,3E0,2.52E2,5.7E1,2.89E2,2.136E3,6.37E2,3.52E2,5.78E2,1.27E2,1.48E2,4.46E2,3E1,4.3E1,2E0,1E0,1.65E2,8.7E1,2.5E1,3.2E1,2.17E2,7.2E1,2.074E3,6.2E1,4.37E2,2E2,1.09E2,2.43E2,5.33E2,4.5E1,7.8E1,4.9E1,9.3E1,5.5E1,4.01E2,4.5E1,9E0,2.1E1,4E1,3E0,1.17E2,4.8E1,4.5E1,4.2E1,2.3E1,2E0,1.3E1,1.9E1,1.48E2,6.9E1,1.5E1,5.7E1,5.4E1,2.02E3,4.1E1,2.1E1,4.23E2,1.4E1,8.5E1,1.15E2,3.9E1,7E1,2.38E2,5E0,2.91E2,2.42E2,2.2E1,2.3E1,7.2E1,6E0,4.1E1,8E0,4.2E1,5.1E1,1E1,4.5E1,2.95E2,1.06E2,3.4E1,1.1E1,1E0,8E0,2E0,1.9E1,2.2E1,1.8E1,1E0,2E0,1.01E2,1.6E1,2.3E1,2.5E1,3E0,4.2E1,1E1,3.2E1,3E0,2E1,1E0,1E0,1E1,3E0],"tree_param":{"num_deleted":"0","num_feature":"23","num_nodes":"113","size_leaf_vector":"0"}},{"base_weights":[2.9443816E3,2.528631E3,4.056324E3,2.3263464E3,4.266656E3,5.3281353E3,3.1507231E3,2.269079E3,6.036546E3,5.007332E3,2.8034802E3,4.4539277E3,6.54727E3,6.203135E3,2.9969912E3,1.7959052E3,2.6218054E3,7.690455E3,4.214074E3,7.005478E3,4.135852E3,2.0722373E3,3.8213455E3,1.2485787E4,4.1962603E3,4.848047E0,6.8043745E3,7.0536562E3,4.0249275E3,1.8756333E3,3.4844956E3,3.765875E2,1.9234395E3,2.492778E3,8.0670054E3,3.8398643E3,8.040996E3,-1.5240137E2,4.394829E3,6.1392124E3,1.0403281E4,2.3813271E3,5.579625E3,2.810375E3,1.0126321E3,7.7108057E2,4.2592344E3,1.6750115E4,1.9017671E3,2.4530466E3,4.9911104E3,3.406483E3,-2.8306555E3,6.505153E3,1.3395889E4,2.1432012E3,7.3735605E3,2.4874363E3,7.1051184E2,2.8461895E3,4.58701E3,2.6670063E3,1.8401543E2,1.5451758E3,2.4017163E3,2.2010608E3,3.2957224E3,4.0380896E3,1.1394842E4,5.18388E3,2.416086E3,9.709883E3,5.2822954E3,2.843222E3,1.3142982E4,-6.784018E2,3.637461E3,6.255325E3,6.804061E2,3.7497332E3,1.4017227E3,2.9477554E2,3.7393965E3,-1.3150481E3,3.1859712E3,5.156391E3,1.7761942E3,1.02034375E4,2.2077873E4,1.1784681E3,4.6693174E3,6.0997026E3,3.818158E3,-5.3648496E3,-1.2508469E3,5.4296475E3,8.039277E3,5.3765835E3,1.4919035E4,2.5737363E3,6.410654E2,2.8272932E3,8.449667E2,-1.5603375E2,2.8472712E3,4.3513325E3,2.466421E3,4.273298E3,8.087579E3],"categories":[],"categories_nodes":[],"categories_segments":[],"categories_sizes":[],"default_left":[true,true,true,true,true,true,true,true,true,true,true,true,true,true,true,true,true,true,true,true,true,true,true,true,true,true,true,true,false,true,true,true,true,true,true,false,false,false,true,true,true,true,true,true,true,true,true,true,false,true,true,false,true,true,true,true,false,true,true,true,true,false,false,false,false,false,false,false,false,false,false,false,false,false,false,false,false,false,false,false,false,false,false,false,false,false,false,false,false,false,false,false,false,false,false,false,false,false,false,false,false,false,false,false,false,false,false,false,false],"id":6,"left_children":[1,3,5,7,9,11,13,15,17,19,21,23,25,27,29,31,33,35,37,39,41,43,45,47,49,51,53,55,-1,57,59,61,63,65,67,-1,-1,-1,69,71,73,75,77,79,81,83,85,87,-1,89,91,-1,93,95,97,99,-1,101,103,105,107,-1,-1,-1,-1,-1,-1,-1,-1,-1,-1,-1,-1,-1,-1,-1,-1,-1,-1,-1,-1,-1,-1,-1,-1,-1,-1,-1,-1,-1,-1,-1,-1,-1,-1,-1,-1,-1,-1,-1,-1,-1,-1,-1,-1,-1,-1,-1,-1],"loss_changes":[2.346967E9,1.2958249E9,1.5795405E9,6.936248E8,4.0428544E8,5.8366054E8,3.6244275E8,5.427272E8,1.1830195E8,4.150692E8,9.032973E7,6.471132E8,4.003031E8,4.200883E7,4.17131E8,2.5341645E8,1.2986337E9,2.86848E6,2.1190624E7,1.5983027E8,4.426775E8,5.894275E7,6.884237E7,4.194825E8,4.4361728E8,1.06096056E8,3.6452045E8,2.5039744E7,0E0,1.671721E8,3.6626125E8,5.11145E7,2.2930688E8,4.2256384E8,5.3051213E8,0E0,0E0,0E0,2.6508512E7,1.4147482E8,2.526039E8,3.2147226E8,3.2016333E8,5.561245E7,6.5450188E7,4.449188E7,9.554202E7,1.8883456E7,0E0,2.9110246E8,2.6928384E8,0E0,1.7310644E7,3.209902E8,2.971776E7,2.90233E5,0E0,8.41328E7,1.5412704E8,1.8590029E8,1.8068045E8,0E0,0E0,0E0,0E0,0E0,0E0,0E0,0E0,0E0,0E0,0E0,0E0,0E0,0E0,0E0,0E0,0E0,0E0,0E0,0E0,0E0,0E0,0E0,0E0,0E0,0E0,0E0,0E0,0E0,0E0,0E0,0E0,0E0,0E0,0E0,0E0,0E0,0E0,0E0,0E0,0E0,0E0,0E0,0E0,0E0,0E0,0E0,0E0],"parents":[2147483647,0,0,1,1,2,2,3,3,4,4,5,5,6,6,7,7,8,8,9,9,10,10,11,11,12,12,13,13,14,14,15,15,16,16,17,17,18,18,19,19,20,20,21,21,22,22,23,23,24,24,25,25,26,26,27,27,29,29,30,30,31,31,32,32,33,33,34,34,38,38,39,39,40,40,41,41,42,42,43,43,44,44,45,45,46,46,47,47,49,49,50,50,52,52,53,53,54,54,55,55,57,57,58,58,59,59,60,60],"right_children":[2,4,6,8,10,12,14,16,18,20,22,24,26,28,30,32,34,36,38,40,42,44,46,48,50,52,54,56,-1,58,60,62,64,66,68,-1,-1,-1,70,72,74,76,78,80,82,84,86,88,-1,90,92,-1,94,96,98,100,-1,102,104,106,108,-1,-1,-1,-1,-1,-1,-1,-1,-1,-1,-1,-1,-1,-1,-1,-1,-1,-1,-1,-1,-1,-1,-1,-1,-1,-1,-1,-1,-1,-1,-1,-1,-1,-1,-1,-1,-1,-1,-1,-1,-1,-1,-1,-1,-1,-1,-1,-1],"split_conditions":[2.0175E3,5E-1,2.85E1,5E-1,6.1672E4,5E-1,3.5E0,2.0125E3,2.25E1,1.45E1,5E-1,4.2305E3,1.11E2,3.45E1,1.05E1,2.0095E3,5E-1,2.09665E4,1.21E2,2.0145E3,2.45E1,1.25E1,6.40235E4,2.4E1,9.5E0,3.6E2,7.75E2,8.979E3,1.2074783E3,5.185E2,5E-1,3.0118E4,1.9E1,5E-1,1.735E2,1.1519594E3,2.4122988E3,-4.5720413E1,7.48885E4,5.5E0,5E-1,2.0105E3,1.75E1,5E-1,5E-1,2.015E3,8.7836E4,5E-1,5.7053015E2,2.285E2,2.6E2,1.0219449E3,5E-1,1.9E1,5E-1,7.2755E3,2.2120684E3,3.7E1,5.49E2,1.50515E4,3.25E1,8.001019E2,5.520463E1,4.6355276E2,7.205149E2,6.6031824E2,9.8871674E2,1.2114269E3,3.4184526E3,1.5551641E3,7.248258E2,2.9129648E3,1.5846887E3,8.529666E2,3.9428948E3,-2.0352055E2,1.0912383E3,1.8765977E3,2.0412184E2,1.12492E3,4.205168E2,8.843266E1,1.121819E3,-3.9451443E2,9.557914E2,1.5469174E3,5.328583E2,3.0610312E3,6.6233623E3,3.5354047E2,1.4007953E3,1.8299109E3,1.1454474E3,-1.609455E3,-3.752541E2,1.6288943E3,2.4117832E3,1.6129751E3,4.475711E3,7.721209E2,1.9231964E2,8.48188E2,2.5349E2,-4.6810127E1,8.541814E2,1.3053998E3,7.399263E2,1.2819894E3,2.426274E3],"split_indices":[19,15,18,11,0,7,22,19,18,17,2,0,21,18,22,19,16,0,21,19,18,22,0,22,22,20,21,0,0,21,8,0,22,14,21,0,0,0,0,22,1,19,17,3,5,19,0,15,0,20,20,0,8,22,3,0,0,18,21,0,17,0,0,0,0,0,0,0,0,0,0,0,0,0,0,0,0,0,0,0,0,0,0,0,0,0,0,0,0,0,0,0,0,0,0,0,0,0,0,0,0,0,0,0,0,0,0,0,0],"split_type":[0,0,0,0,0,0,0,0,0,0,0,0,0,0,0,0,0,0,0,0,0,0,0,0,0,0,0,0,0,0,0,0,0,0,0,0,0,0,0,0,0,0,0,0,0,0,0,0,0,0,0,0,0,0,0,0,0,0,0,0,0,0,0,0,0,0,0,0,0,0,0,0,0,0,0,0,0,0,0,0,0,0,0,0,0,0,0,0,0,0,0,0,0,0,0,0,0,0,0,0,0,0,0,0,0,0,0,0,0],"sum_hessian":[5.098E3,3.713E3,1.385E3,3.328E3,3.85E2,5.74E2,8.11E2,3.279E3,4.9E1,2.54E2,1.31E2,3.37E2,2.37E2,3.7E1,7.74E2,1.403E3,1.876E3,2.4E1,2.5E1,7.5E1,1.79E2,7.8E1,5.3E1,9E0,3.28E2,9E0,2.28E2,2.5E1,1.2E1,2.36E2,5.38E2,1.16E2,1.287E3,1.834E3,4.2E1,3E0,2.1E1,1E0,2.4E1,6.2E1,1.3E1,8.2E1,9.7E1,4.5E1,3.3E1,7E0,4.6E1,6E0,3E0,1.04E2,2.24E2,4E0,5E0,2.2E2,8E0,2E0,2.3E1,1.54E2,8.2E1,3.43E2,1.95E2,8E0,1.08E2,7.21E2,5.66E2,1.348E3,4.86E2,2E1,2.2E1,1.6E1,8E0,1E1,5.2E1,4E0,9E0,2.4E1,5.8E1,8.5E1,1.2E1,2.6E1,1.9E1,2.7E1,6E0,4E0,3E0,3.3E1,1.3E1,4E0,2E0,6.7E1,3.7E1,1.13E2,1.11E2,1E0,4E0,1.32E2,8.8E1,2E0,6E0,1E0,1E0,1.27E2,2.7E1,5.9E1,2.3E1,6.7E1,2.76E2,1.81E2,1.4E1],"tree_param":{"num_deleted":"0","num_feature":"23","num_nodes":"109","size_leaf_vector":"0"}},{"base_weights":[2.0743977E3,1.8331858E3,3.196234E3,1.6920115E3,3.1129219E3,2.7231543E3,5.185489E3,1.8498812E3,9.294069E2,1.576197E3,3.7305933E3,1.9789604E3,3.5080073E3,5.606256E3,3.2432805E3,2.8344485E2,1.945235E3,8.828591E2,3.1459202E3,5.1008984E3,1.0673491E3,1.0403707E3,4.498047E3,1.5222823E3,3.9954033E3,4.6925986E3,2.7995723E3,4.0608647E3,6.588173E3,6.1421094E3,2.0699707E3,-3.9837555E2,6.8844404E3,6.0197817E3,1.8165598E3,9.4724774E2,-5.5602374E2,4.1749463E3,-2.1312549E2,-6.2855793E1,7.6890615E3,8.157174E2,2.6806372E3,4.3201396E3,-1.6115355E2,6.297507E3,3.33854E3,1.8352252E3,5.3871796E2,4.48795E3,-3.2067847E3,9.011825E3,4.221571E3,2.6294597E3,7.6974233E3,7.0111484E3,3.361621E3,5.9153975E3,1.2240111E4,4.9224164E2,5.3611147E3,4.0768417E2,-5.9450557E3,2.2120748E4,4.5496245E3,1.0223974E4,4.4239556E3,1.7360936E3,3.7608677E3,2.5094946E2,1.0860154E3,-2.17145E3,6.1698444E2,2.0966091E3,4.766147E3,-7.0751953E2,6.350283E2,9.0979297E2,-1.3387689E3,8.052957E3,2.207001E3,1.4735591E3,-7.060371E1,3.5915342E3,-4.9448877E2,-2.8678754E2,6.6475024E3,-2.3059438E3,1.2277806E3,7.1866396E3,2.1090225E3,3.9820789E3,1.7114934E3,1.5685101E3,3.4698484E3,6.4398027E3,3.741728E2,3.692571E3,9.693453E3,-3.940999E3,-1.3496387E2,1.0343227E4,1.5698789E3,3.8300056E3,7.14984E3,2.4575518E3,7.460178E3,7.7743613E3,2.6388645E3,-6.144841E2,3.9442666E3,4.0157908E3,6.650123E3,2.4956719E3,1.5072313E4,-1.4069016E3,1.1353469E3],"categories":[],"categories_nodes":[],"categories_segments":[],"categories_sizes":[],"default_left":[true,true,true,true,true,true,true,true,true,true,true,true,true,true,true,true,true,true,true,true,true,true,true,true,true,true,true,true,true,false,true,true,true,true,true,true,true,true,true,true,true,true,true,true,true,true,true,true,true,true,true,true,true,true,false,true,true,true,true,true,false,false,false,false,false,false,false,false,false,false,false,false,false,false,false,false,false,false,false,false,false,false,false,false,false,false,false,false,false,false,false,false,false,false,false,false,false,false,false,false,false,false,false,false,false,false,false,false,false,false,false,false,false,false,false,false,false],"id":7,"left_children":[1,3,5,7,9,11,13,15,17,19,21,23,25,27,29,31,33,35,37,39,41,43,45,47,49,51,53,55,57,-1,59,61,63,65,67,69,71,73,75,77,79,81,83,85,87,89,91,93,95,97,99,101,103,105,-1,107,109,111,113,115,-1,-1,-1,-1,-1,-1,-1,-1,-1,-1,-1,-1,-1,-1,-1,-1,-1,-1,-1,-1,-1,-1,-1,-1,-1,-1,-1,-1,-1,-1,-1,-1,-1,-1,-1,-1,-1,-1,-1,-1,-1,-1,-1,-1,-1,-1,-1,-1,-1,-1,-1,-1,-1,-1,-1,-1,-1],"loss_changes":[1.3739336E9,7.533486E8,8.337879E8,4.5384397E8,3.889833E8,4.1943808E8,1.2237875E8,4.6756045E8,6.43888E7,2.115735E8,6.064479E8,3.4108403E8,2.8394138E8,1.8568858E8,9.95264E7,8.173681E8,1.5378278E9,5.972864E7,4.5824896E7,2.0095283E8,4.125048E7,2.6472458E8,4.588672E8,9.412134E7,2.5916352E8,2.2847232E8,1.6639347E8,9.402029E7,2.4700365E8,0E0,1.2717439E8,7.401313E8,5.041164E8,5.5859405E8,4.417024E8,5.886112E7,5.4397184E7,2.294384E6,2.1265835E6,8.664095E6,2.176064E6,5.4911584E7,4.226696E7,1.9490227E8,1.5177984E8,3.162898E8,1.4186842E8,9.657651E7,7.138602E7,2.3332877E8,1.074498E7,1.0266099E8,1.1020902E8,1.6270195E8,0E0,1.2854368E7,1.1362336E8,8.076262E7,1.8317018E8,2.3581604E7,0E0,0E0,0E0,0E0,0E0,0E0,0E0,0E0,0E0,0E0,0E0,0E0,0E0,0E0,0E0,0E0,0E0,0E0,0E0,0E0,0E0,0E0,0E0,0E0,0E0,0E0,0E0,0E0,0E0,0E0,0E0,0E0,0E0,0E0,0E0,0E0,0E0,0E0,0E0,0E0,0E0,0E0,0E0,0E0,0E0,0E0,0E0,0E0,0E0,0E0,0E0,0E0,0E0,0E0,0E0,0E0,0E0],"parents":[2147483647,0,0,1,1,2,2,3,3,4,4,5,5,6,6,7,7,8,8,9,9,10,10,11,11,12,12,13,13,14,14,15,15,16,16,17,17,18,18,19,19,20,20,21,21,22,22,23,23,24,24,25,25,26,26,27,27,28,28,30,30,31,31,32,32,33,33,34,34,35,35,36,36,37,37,38,38,39,39,40,40,41,41,42,42,43,43,44,44,45,45,46,46,47,47,48,48,49,49,50,50,51,51,52,52,53,53,55,55,56,56,57,57,58,58,59,59],"right_children":[2,4,6,8,10,12,14,16,18,20,22,24,26,28,30,32,34,36,38,40,42,44,46,48,50,52,54,56,58,-1,60,62,64,66,68,70,72,74,76,78,80,82,84,86,88,90,92,94,96,98,100,102,104,106,-1,108,110,112,114,116,-1,-1,-1,-1,-1,-1,-1,-1,-1,-1,-1,-1,-1,-1,-1,-1,-1,-1,-1,-1,-1,-1,-1,-1,-1,-1,-1,-1,-1,-1,-1,-1,-1,-1,-1,-1,-1,-1,-1,-1,-1,-1,-1,-1,-1,-1,-1,-1,-1,-1,-1,-1,-1,-1,-1,-1,-1],"split_conditions":[2.0185E3,5E-1,5E-1,8.08545E4,1.02E2,5E-1,3.15E1,7E0,5E-1,1.85E1,3.365E2,5E-1,5E-1,5E-1,2.47E2,2.95E1,2.15E1,3.85E1,2.45E1,6E0,2.0165E3,2.625E2,4.25285E4,3.57E2,3.5E1,1.35E1,3.45E1,4.135E2,5.57945E4,1.8426329E3,3.405E2,2.35E1,2.2405E4,2.045E2,5E-1,2.0105E3,5E-1,3.34E2,9.1911E4,5E-1,8.03805E4,2.0115E3,6.32E2,1.94E2,4.06625E4,7.725E2,3.59E2,6.25E2,7.5E0,4.07E2,5E-1,2.0205E3,2.05E1,4.19E2,2.309227E3,2.86E2,4.315E2,1.365E2,1.95E1,3.25E1,1.6083345E3,1.2230526E2,-1.7835167E3,6.6362246E3,1.3648875E3,3.0671921E3,1.3271868E3,5.208281E2,1.1282604E3,7.528484E1,3.2580463E2,-6.51435E2,1.8509534E2,6.289828E2,1.4298441E3,-2.1225587E2,1.905085E2,2.729379E2,-4.016307E2,2.4158872E3,6.6210034E2,4.4206775E2,-2.1181112E1,1.0774603E3,-1.4834663E2,-8.603626E1,1.9942509E3,-6.917832E2,3.683342E2,2.155992E3,6.327068E2,1.1946237E3,5.1344806E2,4.7055307E2,1.0409546E3,1.9319409E3,1.1225184E2,1.1077714E3,2.9080361E3,-1.1822998E3,-4.0489162E1,3.102968E3,4.7096368E2,1.1490017E3,2.1449521E3,7.3726556E2,2.2380535E3,2.3323086E3,7.9165936E2,-1.8434523E2,1.18328E3,1.2047373E3,1.995037E3,7.487016E2,4.5216943E3,-4.220705E2,3.406041E2],"split_indices":[19,15,5,0,20,8,18,17,11,18,21,9,12,3,21,22,18,22,18,17,19,21,0,20,22,17,17,21,0,0,20,22,0,20,16,19,12,21,0,7,0,19,21,21,0,21,20,21,17,20,12,19,17,20,0,20,21,20,18,18,0,0,0,0,0,0,0,0,0,0,0,0,0,0,0,0,0,0,0,0,0,0,0,0,0,0,0,0,0,0,0,0,0,0,0,0,0,0,0,0,0,0,0,0,0,0,0,0,0,0,0,0,0,0,0,0,0],"split_type":[0,0,0,0,0,0,0,0,0,0,0,0,0,0,0,0,0,0,0,0,0,0,0,0,0,0,0,0,0,0,0,0,0,0,0,0,0,0,0,0,0,0,0,0,0,0,0,0,0,0,0,0,0,0,0,0,0,0,0,0,0,0,0,0,0,0,0,0,0,0,0,0,0,0,0,0,0,0,0,0,0,0,0,0,0,0,0,0,0,0,0,0,0,0,0,0,0,0,0,0,0,0,0,0,0,0,0,0,0,0,0,0,0,0,0,0,0],"sum_hessian":[5.098E3,4.198E3,9E2,3.783E3,4.15E2,7.29E2,1.71E2,3.133E3,6.5E2,1.2E2,2.95E2,3.76E2,3.53E2,1.39E2,3.2E1,1.8E2,2.953E3,6.38E2,1.2E1,1.4E1,1.06E2,6.6E1,2.29E2,3.08E2,6.8E1,1.3E2,2.23E2,5.6E1,8.3E1,8E0,2.4E1,1.64E2,1.6E1,8.9E1,2.864E3,6.11E2,2.7E1,9E0,3E0,5E0,9E0,9.3E1,1.3E1,1.7E1,4.9E1,8.8E1,1.41E2,2.33E2,7.5E1,6.4E1,4E0,1.1E1,1.19E2,2.17E2,6E0,9E0,4.7E1,7.6E1,7E0,1.7E1,7E0,1.44E2,2E1,1E0,1.5E1,2.3E1,6.6E1,2.752E3,1.12E2,1.02E2,5.09E2,1.1E1,1.6E1,3E0,6E0,2E0,1E0,3E0,2E0,8E0,1E0,5.3E1,4E1,1E1,3E0,6E0,1.1E1,1.9E1,3E1,7.2E1,1.6E1,1E2,4.1E1,2.02E2,3.1E1,1E0,7.4E1,5.7E1,7E0,3E0,1E0,9E0,2E0,1.07E2,1.2E1,2.11E2,6E0,7E0,2E0,6E0,4.1E1,2.3E1,5.3E1,2E0,5E0,4E0,1.3E1],"tree_param":{"num_deleted":"0","num_feature":"23","num_nodes":"117","size_leaf_vector":"0"}},{"base_weights":[1.4636885E3,2.95212E3,1.3360143E3,3.4681357E3,1.7808846E3,9.801807E2,1.6774786E3,4.516444E3,2.9669878E3,1.2307562E3,3.2170884E3,1.1937927E3,4.0978293E2,2.4028967E3,1.2999153E3,2.919778E3,6.6383403E3,4.7782524E3,2.5724048E3,1.9848884E3,3.6295544E2,2.500464E3,4.4881694E3,1.2874534E3,-5.5172125E2,1.3876645E2,1.0078002E3,2.4672925E3,-4.4336367E3,3.3940261E3,1.1858146E3,3.9293438E3,9.5951416E2,4.594174E3,1.1052354E4,6.806309E3,1.8908304E3,4.1996743E3,2.2077383E3,6.3707393E3,1.5603604E3,-1.2270009E3,1.069292E3,2.5939146E3,1.7555273E2,5.2776914E3,6.2354755E2,9.3347644E2,1.9158013E3,5.1950684E2,-1.7401304E3,-8.2020874E2,3.8853165E2,-9.743911E2,1.1894082E3,2.1802144E3,4.26064E3,3.945632E3,2.4260781E3,8.452437E2,1.6588698E3,-1.1986244E3,4.287299E3,-4.7641583E2,2.607927E3,2.972538E3,8.073991E3,2.2389129E4,7.6797637E3,1.3255717E4,4.768563E3,3.647911E3,-6.383915E2,3.0787302E3,7.796681E3,2.0116556E3,4.9955645E3,1.810427E3,-8.522715E2,-1.4916237E3,2.4049089E2,-4.943021E2,1.3889948E3,2.6820247E3,3.277461E2,6.605245E3,2.894599E3,9.906543E1,8.3625586E2,2.365701E3,7.6284735E2,1.7556571E3,6.7471455E3,-2.6357553E2,1.4642991E3,-2.6047576E3,-6.0189056E2,-9.468407E2,4.246838E2,9.4012695E2,1.3995749E2,-1.3351813E3,2.399126E3,1.7270378E3,8.315799E2,2.5640784E3,-6.744529E2,7.982328E3,3.354969E3,4.3933345E3,1.715489E3,1.2416559E3,2.908013E3,1.8258252E3,6.376348E2,3.1633247E3,1.1822931E3],"categories":[],"categories_nodes":[],"categories_segments":[],"categories_sizes":[],"default_left":[true,true,true,true,true,true,true,true,true,true,true,true,true,true,true,true,true,true,true,true,true,true,true,true,true,true,true,true,false,true,true,true,true,true,true,true,true,true,true,false,true,true,true,true,false,true,true,true,true,true,true,true,true,true,true,true,true,true,true,true,true,false,false,false,false,false,false,false,false,false,false,false,false,false,false,false,false,false,false,false,false,false,false,false,false,false,false,false,false,false,false,false,false,false,false,false,false,false,false,false,false,false,false,false,false,false,false,false,false,false,false,false,false,false,false,false,false],"id":8,"left_children":[1,3,5,7,9,11,13,15,17,19,21,23,25,27,29,31,33,35,37,39,41,43,45,47,49,51,53,55,-1,57,59,61,63,65,67,69,71,73,75,-1,77,79,81,83,-1,85,87,89,91,93,95,97,99,101,103,105,107,109,111,113,115,-1,-1,-1,-1,-1,-1,-1,-1,-1,-1,-1,-1,-1,-1,-1,-1,-1,-1,-1,-1,-1,-1,-1,-1,-1,-1,-1,-1,-1,-1,-1,-1,-1,-1,-1,-1,-1,-1,-1,-1,-1,-1,-1,-1,-1,-1,-1,-1,-1,-1,-1,-1,-1,-1,-1,-1],"loss_changes":[9.650401E8,2.3678285E8,5.6918374E8,1.3264896E8,9.480256E7,2.80117E8,6.5312E8,2.787579E8,1.2421504E8,5.9487744E7,1.974768E7,2.7454925E8,1.0180376E8,3.71499E8,3.7302195E8,9.913853E7,2.8307392E8,1.803737E8,8.508045E7,8.129326E7,5.0725964E7,4.75896E6,3.0272352E7,3.5186048E8,1.10386936E8,1.0426976E8,7.171541E7,4.0875366E8,0E0,3.3675584E7,2.3993882E8,6.754861E7,4.621556E7,1.2836064E8,2.4863398E8,1.8649216E8,6.898949E7,8.889334E7,6.210771E7,0E0,2.9295648E7,5.79537E6,1.6183032E7,3.71344E6,0E0,9.353616E6,2.5184112E5,2.4721773E8,4.307173E8,3.4419056E7,3.878249E7,1.459E7,4.7172176E7,2.389451E7,3.3192064E7,7.7098394E8,3.4735885E8,4.2385344E7,1.4655296E7,1.7655885E8,4.450948E8,0E0,0E0,0E0,0E0,0E0,0E0,0E0,0E0,0E0,0E0,0E0,0E0,0E0,0E0,0E0,0E0,0E0,0E0,0E0,0E0,0E0,0E0,0E0,0E0,0E0,0E0,0E0,0E0,0E0,0E0,0E0,0E0,0E0,0E0,0E0,0E0,0E0,0E0,0E0,0E0,0E0,0E0,0E0,0E0,0E0,0E0,0E0,0E0,0E0,0E0,0E0,0E0,0E0,0E0,0E0,0E0],"parents":[2147483647,0,0,1,1,2,2,3,3,4,4,5,5,6,6,7,7,8,8,9,9,10,10,11,11,12,12,13,13,14,14,15,15,16,16,17,17,18,18,19,19,20,20,21,21,22,22,23,23,24,24,25,25,26,26,27,27,29,29,30,30,31,31,32,32,33,33,34,34,35,35,36,36,37,37,38,38,40,40,41,41,42,42,43,43,45,45,46,46,47,47,48,48,49,49,50,50,51,51,52,52,53,53,54,54,55,55,56,56,57,57,58,58,59,59,60,60],"right_children":[2,4,6,8,10,12,14,16,18,20,22,24,26,28,30,32,34,36,38,40,42,44,46,48,50,52,54,56,-1,58,60,62,64,66,68,70,72,74,76,-1,78,80,82,84,-1,86,88,90,92,94,96,98,100,102,104,106,108,110,112,114,116,-1,-1,-1,-1,-1,-1,-1,-1,-1,-1,-1,-1,-1,-1,-1,-1,-1,-1,-1,-1,-1,-1,-1,-1,-1,-1,-1,-1,-1,-1,-1,-1,-1,-1,-1,-1,-1,-1,-1,-1,-1,-1,-1,-1,-1,-1,-1,-1,-1,-1,-1,-1,-1,-1,-1,-1],"split_conditions":[1.5928E4,2.55E1,2.0135E3,3.985E2,3.15E1,2.35E1,5E-1,1.9E1,4.355E3,5.245E2,2.775E2,3.85E1,3.1E1,4.485E2,3.5E0,2.85E1,2.92E2,1.75E1,7.3E1,3.05E1,5.305E2,5E-1,4.27E2,1.95E1,1.87E2,2.0115E3,5E-1,2.9E1,-1.3300911E3,3.45E1,1.85E1,2.0105E3,1.635E2,2.35E1,9.95E1,1.35E1,3.155E2,5.35E1,4.215E2,1.9112218E3,3.1E1,1.27345E4,1.05E1,2.48E2,5.266582E1,5E-1,1.0059E4,2.5E0,5E-1,2.0125E3,5E-1,2.95E1,2.795E2,5E-1,2.55E1,2.6E1,1.75E1,7.02765E4,2.0155E3,2.915E2,2.6E1,-3.5958734E2,1.2861897E3,-1.4292476E2,7.823781E2,8.917615E2,2.4221975E3,6.716739E3,2.3039292E3,3.976715E3,1.430569E3,1.0943733E3,-1.9151746E2,9.236191E2,2.3390044E3,6.034967E2,1.4986694E3,5.431281E2,-2.5568146E2,-4.4748712E2,7.214727E1,-1.4829063E2,4.1669846E2,8.046074E2,9.832383E1,1.9815736E3,8.6837976E2,2.971963E1,2.5087677E2,7.097103E2,2.2885422E2,5.2669714E2,2.0241437E3,-7.907266E1,4.3928973E2,-7.814273E2,-1.8056717E2,-2.8405222E2,1.2740514E2,2.820381E2,4.1987247E1,-4.005544E2,7.197378E2,5.181114E2,2.4947398E2,7.692236E2,-2.0233588E2,2.3946985E3,1.0064907E3,1.3180004E3,5.146467E2,3.7249677E2,8.7240393E2,5.4774756E2,1.9129045E2,9.4899744E2,3.5468793E2],"split_indices":[0,17,19,21,22,17,12,22,0,21,20,22,22,20,22,18,21,22,20,18,21,14,20,22,20,19,12,22,0,18,22,19,20,17,20,17,20,20,20,0,17,0,22,20,0,9,0,22,16,19,12,17,21,2,17,22,18,0,19,21,22,0,0,0,0,0,0,0,0,0,0,0,0,0,0,0,0,0,0,0,0,0,0,0,0,0,0,0,0,0,0,0,0,0,0,0,0,0,0,0,0,0,0,0,0,0,0,0,0,0,0,0,0,0,0,0,0],"split_type":[0,0,0,0,0,0,0,0,0,0,0,0,0,0,0,0,0,0,0,0,0,0,0,0,0,0,0,0,0,0,0,0,0,0,0,0,0,0,0,0,0,0,0,0,0,0,0,0,0,0,0,0,0,0,0,0,0,0,0,0,0,0,0,0,0,0,0,0,0,0,0,0,0,0,0,0,0,0,0,0,0,0,0,0,0,0,0,0,0,0,0,0,0,0,0,0,0,0,0,0,0,0,0,0,0,0,0,0,0,0,0,0,0,0,0,0,0],"sum_hessian":[5.098E3,4.01E2,4.697E3,2.77E2,1.24E2,2.302E3,2.395E3,8.7E1,1.9E2,9.1E1,3.3E1,1.674E3,6.28E2,8.18E2,1.577E3,5.1E1,3.6E1,3.2E1,1.58E2,4.8E1,4.3E1,2.3E1,1E1,1.589E3,8.5E1,4.33E2,1.95E2,8.11E2,7E0,8E1,1.497E3,3.3E1,1.8E1,2.6E1,1E1,1.8E1,1.4E1,2.7E1,1.31E2,3E0,4.5E1,1.3E1,3E1,2.2E1,1E0,8E0,2E0,1.018E3,5.71E2,4.5E1,4E1,8.9E1,3.44E2,1.6E1,1.79E2,7.01E2,1.1E2,4.9E1,3.1E1,8.72E2,6.25E2,2E0,3.1E1,1E1,8E0,1.9E1,7E0,1E0,9E0,3E0,1.5E1,8E0,6E0,2.2E1,5E0,1.24E2,7E0,4.1E1,4E0,1.1E1,2E0,5E0,2.5E1,2.1E1,1E0,4E0,4E0,1E0,1E0,1.07E2,9.11E2,5.54E2,1.7E1,2.5E1,2E1,2.2E1,1.8E1,8.1E1,8E0,1.06E2,2.38E2,1.5E1,1E0,7E1,1.09E2,6.18E2,8.3E1,2E1,9E1,4E1,9E0,1E1,2.1E1,1.51E2,7.21E2,1.49E2,4.76E2],"tree_param":{"num_deleted":"0","num_feature":"23","num_nodes":"117","size_leaf_vector":"0"}},{"base_weights":[1.0331432E3,1.4077863E3,7.007919E2,1.6611637E3,7.158941E2,-7.587598E1,8.047051E2,1.2774385E3,2.2393196E3,5.9227686E2,2.5677078E3,-1.0047617E3,1.7408493E2,1.4472007E3,6.466792E2,2.612456E3,1.0888412E3,2.1038777E3,5.801255E3,1.1626282E3,1.7623164E2,1.8788881E3,6.1578716E3,-6.402013E2,-1.8476968E3,9.139326E2,-2.191722E2,2.2747534E2,1.9228701E3,2.3315378E3,5.7390955E2,1.3651866E3,3.8387227E3,9.475173E2,3.6017979E3,2.9342773E3,1.5347162E3,3.2869065E3,9.244087E3,-3.2165802E2,1.3619626E3,3.4574643E2,-7.041736E2,3.827181E1,2.1843816E3,7.222202E3,4.181084E2,-8.990486E2,1.0413181E3,-1.9619645E3,1.6169385E2,5.22198E2,5.372262E3,-4.9930438E2,1.1793116E3,6.4253644E2,-2.6425027E3,1.6052804E3,3.9550593E3,3.1869465E3,3.563772E2,6.975364E1,7.638127E2,9.6994316E1,2.6304397E3,4.747332E3,2.620434E3,6.78804E2,2.040192E3,4.8921694E3,-7.845283E2,5.127811E2,3.6139817E3,1.2830587E3,4.612499E3,4.1937305E3,-2.0405736E3,-7.674369E1,-1.3293438E3,3.5434695E3,1.2004244E3,-1.5582858E2,9.175081E2,-1.4331775E3,-4.651934E1,-9.557578E1,3.5375488E2,1.0961952E3,2.75669E3,1.6126025E3,-9.972451E2,1.3596451E3,1.6366699E2,-7.725791E2,-2.2276287E3,2.3387568E3,3.214691E2,-2.1720598E2,-1.989682E3,5.068614E2,2.339036E3,3.2737555E2,3.9820205E3,-3.0923171E3,4.874043E2,1.323388E3,4.0418206E3,1.2975594E3,5.240557E3,2.0055798E3,5.9411797E3,-2.2654956E2,1.2534222E3,9.358537E2,-2.528699E2,-3.328078E2,8.946199E2],"categories":[],"categories_nodes":[],"categories_segments":[],"categories_sizes":[],"default_left":[true,true,true,true,true,true,true,true,true,true,true,true,true,true,true,true,true,true,true,true,true,true,true,true,true,true,true,true,true,true,true,true,true,true,true,true,true,true,false,true,true,true,true,true,true,false,false,true,true,true,false,true,false,true,true,true,true,true,true,true,true,true,true,false,false,false,false,false,false,false,false,false,false,false,false,false,false,false,false,false,false,false,false,false,false,false,false,false,false,false,false,false,false,false,false,false,false,false,false,false,false,false,false,false,false,false,false,false,false,false,false,false,false,false,false,false,false],"id":9,"left_children":[1,3,5,7,9,11,13,15,17,19,21,23,25,27,29,31,33,35,37,39,41,43,45,47,49,51,53,55,57,59,61,63,65,67,69,71,73,75,-1,77,79,81,83,85,87,-1,-1,89,91,93,-1,95,-1,97,99,101,103,105,107,109,111,113,115,-1,-1,-1,-1,-1,-1,-1,-1,-1,-1,-1,-1,-1,-1,-1,-1,-1,-1,-1,-1,-1,-1,-1,-1,-1,-1,-1,-1,-1,-1,-1,-1,-1,-1,-1,-1,-1,-1,-1,-1,-1,-1,-1,-1,-1,-1,-1,-1,-1,-1,-1,-1,-1,-1],"loss_changes":[6.339062E8,4.1885286E8,2.1829018E8,3.860475E8,1.4590115E8,7.447414E7,2.4121536E8,2.6303603E8,3.24534E8,1.4335674E8,8.734907E7,1.971356E7,7.381076E7,2.7225005E8,2.33576E8,1.9359251E8,3.2580288E8,3.1405056E8,1.8602752E8,7.58848E7,5.2627304E7,1.9596776E7,3.3634384E7,2.2263778E7,4.9094E6,1.5088504E8,6.5621052E7,1.6012965E8,2.11797E8,1.3234026E8,1.7591827E8,1.0564742E8,5.9511616E7,2.5670374E8,2.8117754E8,4.4747776E8,3.0544966E8,8.585499E7,0E0,7.548678E6,7.503562E7,8.474347E7,2.7260982E7,2.871703E5,1.5661472E7,0E0,0E0,1.221348E7,1.7331315E6,4.282544E6,0E0,2.9148302E7,0E0,5.800804E7,2.0650428E7,1.2183595E8,2.5441136E7,1.9658272E8,1.4692954E8,1.6704128E8,1.3356752E7,1.410665E8,1.9179789E8,0E0,0E0,0E0,0E0,0E0,0E0,0E0,0E0,0E0,0E0,0E0,0E0,0E0,0E0,0E0,0E0,0E0,0E0,0E0,0E0,0E0,0E0,0E0,0E0,0E0,0E0,0E0,0E0,0E0,0E0,0E0,0E0,0E0,0E0,0E0,0E0,0E0,0E0,0E0,0E0,0E0,0E0,0E0,0E0,0E0,0E0,0E0,0E0,0E0,0E0,0E0,0E0,0E0,0E0],"parents":[2147483647,0,0,1,1,2,2,3,3,4,4,5,5,6,6,7,7,8,8,9,9,10,10,11,11,12,12,13,13,14,14,15,15,16,16,17,17,18,18,19,19,20,20,21,21,22,22,23,23,24,24,25,25,26,26,27,27,28,28,29,29,30,30,31,31,32,32,33,33,34,34,35,35,36,36,37,37,39,39,40,40,41,41,42,42,43,43,44,44,47,47,48,48,49,49,51,51,53,53,54,54,55,55,56,56,57,57,58,58,59,59,60,60,61,61,62,62],"right_children":[2,4,6,8,10,12,14,16,18,20,22,24,26,28,30,32,34,36,38,40,42,44,46,48,50,52,54,56,58,60,62,64,66,68,70,72,74,76,-1,78,80,82,84,86,88,-1,-1,90,92,94,-1,96,-1,98,100,102,104,106,108,110,112,114,116,-1,-1,-1,-1,-1,-1,-1,-1,-1,-1,-1,-1,-1,-1,-1,-1,-1,-1,-1,-1,-1,-1,-1,-1,-1,-1,-1,-1,-1,-1,-1,-1,-1,-1,-1,-1,-1,-1,-1,-1,-1,-1,-1,-1,-1,-1,-1,-1,-1,-1,-1,-1,-1,-1],"split_conditions":[5.2088E4,3.45E1,2.0105E3,1.85E1,3.55E1,2.72E2,2.45E1,3.5E0,5E-1,1.08E2,6.995E2,5E-1,1.1E2,6E0,2.5E0,2.0145E3,4.18E2,2.6E1,2.05E1,1.055E2,3.695E2,3.8E1,4.4658E4,2.6E2,3.35E1,1.045E2,3.6E1,3.905E2,2.0175E3,7.445E2,1.05E1,4.40335E4,6.215E2,5E-1,7.245E2,2.0115E3,7.64E2,1.55E2,2.773226E3,5E-1,2.34E2,2.16E2,3.85E1,3.7243E4,2.0145E3,2.1666606E3,1.25432526E2,1.3E1,2.2E1,5E-1,4.8508156E1,2.7E1,1.6116787E3,2.55E1,5E-1,5E-1,4.28E2,5E-1,6.14245E4,4.875E2,2.95E1,5.8574E4,8.65E1,2.9098295E1,7.8913196E2,1.4241997E3,7.8613025E2,2.0364122E2,6.120576E2,1.4676509E3,-2.353585E2,1.5383435E2,1.0841946E3,3.8491763E2,1.3837498E3,1.2581191E3,-6.121721E2,-2.3023108E1,-3.9880313E2,1.0630409E3,3.6012735E2,-4.6748577E1,2.7525244E2,-4.2995328E2,-1.3955803E1,-2.8672735E1,1.0612647E2,3.2885858E2,8.27007E2,4.837808E2,-2.9917355E2,4.0789355E2,4.91001E1,-2.3177374E2,-6.6828864E2,7.016271E2,9.644073E1,-6.51618E1,-5.969046E2,1.5205843E2,7.017108E2,9.821267E1,1.1946062E3,-9.276952E2,1.462213E2,3.970164E2,1.2125463E3,3.8926785E2,1.5721672E3,6.0167395E2,1.782354E3,-6.7964874E1,3.7602667E2,2.8075613E2,-7.586098E1,-9.984235E1,2.68386E2],"split_indices":[0,18,19,22,17,21,18,22,16,20,21,7,20,17,22,19,20,22,17,21,20,17,0,20,18,20,22,20,19,21,22,0,21,15,21,19,21,20,0,5,21,20,18,0,19,0,0,17,17,1,0,20,0,22,1,15,20,4,0,21,18,0,21,0,0,0,0,0,0,0,0,0,0,0,0,0,0,0,0,0,0,0,0,0,0,0,0,0,0,0,0,0,0,0,0,0,0,0,0,0,0,0,0,0,0,0,0,0,0,0,0,0,0,0,0,0,0],"split_type":[0,0,0,0,0,0,0,0,0,0,0,0,0,0,0,0,0,0,0,0,0,0,0,0,0,0,0,0,0,0,0,0,0,0,0,0,0,0,0,0,0,0,0,0,0,0,0,0,0,0,0,0,0,0,0,0,0,0,0,0,0,0,0,0,0,0,0,0,0,0,0,0,0,0,0,0,0,0,0,0,0,0,0,0,0,0,0,0,0,0,0,0,0,0,0,0,0,0,0,0,0,0,0,0,0,0,0,0,0,0,0,0,0,0,0,0,0],"sum_hessian":[5.098E3,2.395E3,2.703E3,1.752E3,6.43E2,3.19E2,2.384E3,1.055E3,6.97E2,6.04E2,3.9E1,6.7E1,2.52E2,4.69E2,1.915E3,1.29E2,9.26E2,6.73E2,2.4E1,2.54E2,3.5E2,3.4E1,5E0,4.8E1,1.9E1,8.7E1,1.65E2,1.32E2,3.37E2,7.8E1,1.837E3,6.5E1,6.4E1,8.78E2,4.8E1,2.72E2,4.01E2,1.5E1,9E0,3E1,2.24E2,2.94E2,5.6E1,5E0,2.9E1,4E0,1E0,4.2E1,6E0,1.8E1,1E0,8.1E1,6E0,1.38E2,2.7E1,1.16E2,1.6E1,2.93E2,4.4E1,5.4E1,2.4E1,5.03E2,1.334E3,3.3E1,3.2E1,3.5E1,2.9E1,7.06E2,1.72E2,3.7E1,1.1E1,6E1,2.12E2,3.72E2,2.9E1,1.3E1,2E0,2.5E1,5E0,1.4E1,2.1E2,1.57E2,1.37E2,2.6E1,3E1,4E0,1E0,1.1E1,1.8E1,1E0,4.1E1,4E0,2E0,4E0,1.4E1,7E0,7.4E1,1.17E2,2.1E1,1.8E1,9E0,1.07E2,9E0,1.4E1,2E0,2.64E2,2.9E1,1.5E1,2.9E1,3.9E1,1.5E1,1.5E1,9E0,1.36E2,3.67E2,1.42E2,1.192E3],"tree_param":{"num_deleted":"0","num_feature":"23","num_nodes":"117","size_leaf_vector":"0"}},{"base_weights":[7.2817236E2,5.962579E2,1.3421354E3,6.6917926E2,-2.3072173E2,2.2971313E3,1.0611019E3,6.278481E2,4.008043E3,-1.3066298E3,9.945657E2,2.608319E3,4.0529947E2,8.947373E2,2.2345955E3,6.893105E2,-3.553357E2,5.070345E3,1.8351357E3,-3.7609468E3,-9.6314154E2,1.5197247E3,-1.6486154E3,2.3602795E3,6.464944E3,-1.3761877E3,1.2343268E3,9.610723E3,8.647917E2,2.0381792E3,5.751585E3,6.6753876E2,1.0351436E4,-4.37311E2,3.3390403E3,1.3841753E3,5.4158574E3,-2.2272004E3,2.5252605E3,-1.9392275E3,-5.4063726E3,-2.196075E3,-4.6591675E2,2.2834844E3,4.4791837E2,-4.1365527E3,-5.710095E2,2.2609429E3,7.0039263E3,1.8180469E2,7.1428696E3,-7.352356E2,-2.626664E3,6.75115E2,2.8887812E3,3.4968052E3,7.9732513E2,2.791298E3,1.3717292E3,8.860652E3,1.7616783E3,5.516249E2,1.4609493E3,1.8332652E4,1.896175E3,-3.822006E3,-2.7559277E2,4.8216934E3,1.7629536E3,1.2912148E3,5.5207993E3,1.0532623E3,3.1559333E3,-5.712161E3,-1.1742432E3,-2.7368262E3,2.4312109E1,7.235231E1,-1.2033939E3,1.4257323E3,4.699678E3,6.6927576E2,-1.545165E3,-1.2768827E3,2.6255194E2,2.7541753E3,1.5592567E3,1.8974297E3,7.561371E3,-8.8483234E2,1.559707E2,-1.4260332E3,8.9556384E2,9.720435E3,1.7915979E3,6.224942E2,1.8034761E3,3.4596768E3,8.362166E2,3.176635E3,7.821267E2],"categories":[],"categories_nodes":[],"categories_segments":[],"categories_sizes":[],"default_left":[true,true,true,true,true,true,true,true,true,true,true,true,true,true,true,true,true,true,true,true,true,true,true,true,true,true,true,false,true,true,true,true,true,true,true,false,true,false,true,false,true,true,true,true,true,false,true,true,false,false,true,true,false,true,false,true,true,true,true,false,false,false,false,false,false,false,false,false,false,false,false,false,false,false,false,false,false,false,false,false,false,false,false,false,false,false,false,false,false,false,false,false,false,false,false,false,false,false,false,false,false],"id":10,"left_children":[1,3,5,7,9,11,13,15,17,19,21,23,25,27,29,31,33,35,37,39,41,43,45,47,49,51,53,-1,55,57,59,61,63,65,67,-1,69,-1,71,-1,73,75,77,79,81,-1,83,85,-1,-1,87,89,-1,91,-1,93,95,97,99,-1,-1,-1,-1,-1,-1,-1,-1,-1,-1,-1,-1,-1,-1,-1,-1,-1,-1,-1,-1,-1,-1,-1,-1,-1,-1,-1,-1,-1,-1,-1,-1,-1,-1,-1,-1,-1,-1,-1,-1,-1,-1],"loss_changes":[4.12171E8,2.5337318E8,2.3937818E8,5.3002214E8,4.508387E8,1.1904051E8,1.342697E8,2.3065997E8,9.918464E7,1.4980896E8,2.2459992E8,1.5214515E8,4.6005704E7,1.5168506E8,4.7685504E7,7.4807616E8,6.960091E7,3.1985536E7,5.3284084E7,5.5460896E7,9.767706E7,1.0866989E8,7.002542E7,6.073779E7,4.129645E7,6.083738E6,1.7478736E7,0E0,1.058865E8,3.7830144E7,3.400993E7,3.2862106E8,5.051042E8,1.1991477E8,3.183524E6,0E0,4.991168E6,0E0,1.0601216E7,0E0,7.528032E6,5.529768E7,4.613455E7,1.5495414E8,2.6181608E7,0E0,1.2103022E7,5.246496E7,0E0,0E0,5.409824E6,1.20458E6,0E0,9.151432E6,0E0,1.4177358E8,1.0406931E8,4.676288E7,4.6467616E7,0E0,0E0,0E0,0E0,0E0,0E0,0E0,0E0,0E0,0E0,0E0,0E0,0E0,0E0,0E0,0E0,0E0,0E0,0E0,0E0,0E0,0E0,0E0,0E0,0E0,0E0,0E0,0E0,0E0,0E0,0E0,0E0,0E0,0E0,0E0,0E0,0E0,0E0,0E0,0E0,0E0,0E0],"parents":[2147483647,0,0,1,1,2,2,3,3,4,4,5,5,6,6,7,7,8,8,9,9,10,10,11,11,12,12,13,13,14,14,15,15,16,16,17,17,18,18,19,19,20,20,21,21,22,22,23,23,24,24,25,25,26,26,28,28,29,29,30,30,31,31,32,32,33,33,34,34,36,36,38,38,40,40,41,41,42,42,43,43,44,44,46,46,47,47,50,50,51,51,53,53,55,55,56,56,57,57,58,58],"right_children":[2,4,6,8,10,12,14,16,18,20,22,24,26,28,30,32,34,36,38,40,42,44,46,48,50,52,54,-1,56,58,60,62,64,66,68,-1,70,-1,72,-1,74,76,78,80,82,-1,84,86,-1,-1,88,90,-1,92,-1,94,96,98,100,-1,-1,-1,-1,-1,-1,-1,-1,-1,-1,-1,-1,-1,-1,-1,-1,-1,-1,-1,-1,-1,-1,-1,-1,-1,-1,-1,-1,-1,-1,-1,-1,-1,-1,-1,-1,-1,-1,-1,-1,-1,-1],"split_conditions":[2.0185E3,3.915E2,5E-1,3.865E2,4.175E2,3.55E1,2.0205E3,3.675E2,5E-1,3.93E2,4.495E2,4.235E2,2.95E1,2.039E3,4.19E2,3.645E2,5E-1,2.01E3,3.945E2,2.0135E3,2.45E1,7.215E2,5E-1,3.1E1,5E-1,5.185E2,3.75E1,2.8832168E3,3.5E0,4.035E2,5.7675E3,2.815E2,4.35825E4,8.5E0,4.03665E4,4.152526E2,1.57005E4,-6.6816016E2,5E-1,-5.817683E2,7.46035E4,3.3E1,2.1E1,6.845E2,7.905E2,-1.2409658E3,2.0125E3,5.27E2,2.101178E3,5.454141E1,1.011E4,3.03055E4,-7.8799927E2,5E-1,8.666344E2,1.95E1,3.6E1,2.95E1,8.6E1,2.6581958E3,5.2850354E2,1.6548747E2,4.3828482E2,5.499796E3,5.6885254E2,-1.1466019E3,-8.267783E1,1.446508E3,5.288861E2,3.8736447E2,1.6562399E3,3.159787E2,9.4678E2,-1.7136484E3,-3.5227295E2,-8.210479E2,7.293633E0,2.1705694E1,-3.610182E2,4.277197E2,1.4099036E3,2.0078273E2,-4.6354953E2,-3.8306482E2,7.876559E1,8.262526E2,4.6777704E2,5.6922894E2,2.2684114E3,-2.654497E2,4.6791214E1,-4.2780997E2,2.6866916E2,2.9161304E3,5.374794E2,1.8674826E2,5.4104285E2,1.0379031E3,2.5086499E2,9.5299054E2,2.3463802E2],"split_indices":[19,20,6,20,20,18,19,20,5,20,20,20,17,0,20,20,15,19,21,19,18,21,12,17,7,21,17,0,22,21,0,20,0,17,0,0,0,0,6,0,0,22,22,21,21,0,19,21,0,0,0,0,0,12,0,17,22,17,20,0,0,0,0,0,0,0,0,0,0,0,0,0,0,0,0,0,0,0,0,0,0,0,0,0,0,0,0,0,0,0,0,0,0,0,0,0,0,0,0,0,0],"split_type":[0,0,0,0,0,0,0,0,0,0,0,0,0,0,0,0,0,0,0,0,0,0,0,0,0,0,0,0,0,0,0,0,0,0,0,0,0,0,0,0,0,0,0,0,0,0,0,0,0,0,0,0,0,0,0,0,0,0,0,0,0,0,0,0,0,0,0,0,0,0,0,0,0,0,0,0,0,0,0,0,0,0,0,0,0,0,0,0,0,0,0,0,0,0,0,0,0,0,0,0,0],"sum_hessian":[5.098E3,4.198E3,9E2,3.858E3,3.4E2,2.03E2,6.97E2,3.812E3,4.6E1,1.81E2,1.59E2,1.74E2,2.9E1,6.12E2,8.5E1,3.588E3,2.24E2,3E1,1.6E1,2.1E1,1.6E2,1.33E2,2.6E1,1.65E2,9E0,9E0,2E1,1E0,6.11E2,8.2E1,3E0,3.581E3,7E0,2.2E2,4E0,3E0,2.7E1,2E0,1.4E1,1.1E1,1E1,4.5E1,1.15E2,7.7E1,5.6E1,7E0,1.9E1,1.63E2,2E0,1E0,8E0,7E0,2E0,1.6E1,4E0,1.4E1,5.97E2,3.7E1,4.5E1,1E0,2E0,3.126E3,4.55E2,3E0,4E0,9E0,2.11E2,1E0,3E0,1E0,2.6E1,5E0,9E0,9E0,1E0,3.6E1,9E0,6.7E1,4.8E1,5.8E1,1.9E1,5.1E1,5E0,1E1,9E0,9.4E1,6.9E1,1E0,7E0,6E0,1E0,1E0,1.5E1,2E0,1.2E1,5.1E2,8.7E1,2.7E1,1E1,1E1,3.5E1],"tree_param":{"num_deleted":"0","num_feature":"23","num_nodes":"101","size_leaf_vector":"0"}},{"base_weights":[5.147048E2,3.0469476E2,7.8197363E2,1.6933005E2,6.549678E2,9.4356433E2,4.630126E1,2.0401836E3,1.11277954E2,3.5436787E3,4.853021E2,8.642884E2,2.9646384E3,-1.09732086E2,1.9323079E3,3.900058E3,9.9244165E2,1.645247E2,-1.8116102E3,4.3155806E3,6.232932E1,9.970963E2,1.2763848E0,1.2392897E3,3.7853085E2,3.4790127E3,-2.0882498E3,3.317633E2,-3.7717914E2,9.5796094E2,2.1765774E3,-2.720375E3,4.3448584E3,2.138023E3,3.8420663E2,-4.136399E2,2.6508197E2,-2.5933071E3,-5.5671893E2,1.8943884E3,4.8346826E3,8.903997E2,-3.014622E2,1.4756981E3,1.2727093E2,-9.970011E1,1.7707085E3,7.070507E2,2.340896E3,-8.1798346E2,9.79538E2,4.637808E3,1.5321315E3,-3.2319863E3,2.3870845E3,1.0304749E3,-1.3519388E2,-6.713049E2,3.7845325E1,1.1950092E3,-3.5068848E2,2.4015322E3,8.414422E2,9.1468955E3,3.0363582E3,-4.426823E1,2.5054272E3,-4.0535754E2,6.6669745E2,-1.0551819E3,-1.672732E2,7.4315393E2,1.3955011E2,-3.8943062E3,-1.9431698E3,-8.958744E1,-1.108318E3,2.5869905E3,-1.2227865E2,-1.6103125E2,5.018852E3,-4.7862012E2,3.8074268E2,-1.6398228E2,2.1681174E3,-1.2044749E3,5.177131E2,-7.881692E2,9.4278E1,-2.4610847E3,3.2469617E3,9.9609546E2,-1.7117415E2,3.0320583E3,4.4501477E2,-3.1081887E3,-4.2228174E2,1.9931647E3,3.0280698E2,5.8124927E3,2.585918E3,2.5200422E3,4.2636447E2,-3.643847E3,-5.863418E2,-2.192447E2,1.404693E3,-7.482122E2,6.227568E2,3.4529254E2,-7.806682E2,1.8947108E2,-1.0645952E3,4.0873047E1,1.3805531E3,1.3291699E2,9.8534424E2],"categories":[],"categories_nodes":[],"categories_segments":[],"categories_sizes":[],"default_left":[true,true,true,true,true,true,true,true,true,true,true,true,true,true,true,true,true,true,true,true,true,true,true,true,true,true,true,true,true,true,true,false,true,true,true,true,true,true,true,true,true,false,true,true,true,true,true,true,true,true,true,true,true,true,false,true,true,true,true,true,false,false,true,false,false,false,false,false,false,false,false,false,false,false,false,false,false,false,false,false,false,false,false,false,false,false,false,false,false,false,false,false,false,false,false,false,false,false,false,false,false,false,false,false,false,false,false,false,false,false,false,false,false,false,false,false,false],"id":11,"left_children":[1,3,5,7,9,11,13,15,17,19,21,23,25,27,29,31,33,35,37,39,41,43,45,47,49,51,53,55,57,59,61,-1,63,65,67,69,71,73,75,77,79,-1,81,83,85,87,89,91,93,95,97,99,101,103,-1,105,107,109,111,113,-1,-1,115,-1,-1,-1,-1,-1,-1,-1,-1,-1,-1,-1,-1,-1,-1,-1,-1,-1,-1,-1,-1,-1,-1,-1,-1,-1,-1,-1,-1,-1,-1,-1,-1,-1,-1,-1,-1,-1,-1,-1,-1,-1,-1,-1,-1,-1,-1,-1,-1,-1,-1,-1,-1,-1,-1],"loss_changes":[2.859643E8,1.3535262E8,2.6659917E8,2.2372054E8,3.884118E8,2.9208704E8,1.1939541E8,1.1694686E8,2.0517555E8,1.1797043E8,1.8653306E8,3.2213568E8,1.8660128E8,4.4403876E7,5.293016E6,7.660461E7,2.7746648E7,1.1336373E8,5.1527264E7,3.608768E7,2.9796268E6,1.5217798E8,6.950091E7,5.840764E8,5.566761E8,1.3502464E8,4.354525E7,4.646942E7,2.8589638E7,2.9007805E6,5.187544E6,0E0,1.0417955E8,1.1335876E7,6.5155E6,4.5501268E7,9.951831E7,2.0345024E7,5.569433E6,1.1490316E7,2.7489856E7,0E0,1.02823706E6,2.6829728E8,6.873961E7,4.9219948E7,1.391822E8,1.7151674E8,4.2451827E8,2.3340315E8,3.52662E8,7.897197E7,2.623552E7,4.40128E6,0E0,2.6965032E7,4.042479E7,1.5501012E7,1.6583232E7,1.442573E6,0E0,0E0,3.78822E5,0E0,0E0,0E0,0E0,0E0,0E0,0E0,0E0,0E0,0E0,0E0,0E0,0E0,0E0,0E0,0E0,0E0,0E0,0E0,0E0,0E0,0E0,0E0,0E0,0E0,0E0,0E0,0E0,0E0,0E0,0E0,0E0,0E0,0E0,0E0,0E0,0E0,0E0,0E0,0E0,0E0,0E0,0E0,0E0,0E0,0E0,0E0,0E0,0E0,0E0,0E0,0E0,0E0,0E0],"parents":[2147483647,0,0,1,1,2,2,3,3,4,4,5,5,6,6,7,7,8,8,9,9,10,10,11,11,12,12,13,13,14,14,15,15,16,16,17,17,18,18,19,19,20,20,21,21,22,22,23,23,24,24,25,25,26,26,27,27,28,28,29,29,30,30,32,32,33,33,34,34,35,35,36,36,37,37,38,38,39,39,40,40,42,42,43,43,44,44,45,45,46,46,47,47,48,48,49,49,50,50,51,51,52,52,53,53,55,55,56,56,57,57,58,58,59,59,62,62],"right_children":[2,4,6,8,10,12,14,16,18,20,22,24,26,28,30,32,34,36,38,40,42,44,46,48,50,52,54,56,58,60,62,-1,64,66,68,70,72,74,76,78,80,-1,82,84,86,88,90,92,94,96,98,100,102,104,-1,106,108,110,112,114,-1,-1,116,-1,-1,-1,-1,-1,-1,-1,-1,-1,-1,-1,-1,-1,-1,-1,-1,-1,-1,-1,-1,-1,-1,-1,-1,-1,-1,-1,-1,-1,-1,-1,-1,-1,-1,-1,-1,-1,-1,-1,-1,-1,-1,-1,-1,-1,-1,-1,-1,-1,-1,-1,-1,-1,-1],"split_conditions":[2.0145E3,5.655E2,3.65E1,2.5E0,5.775E2,4.185E2,3.9E1,1.85E1,5.52E2,3.74E2,1.85E1,5.295E2,4.48E2,1.07E2,1.55E1,4.7864E4,5.3637E4,2.0105E3,5E-1,2.0105E3,6.2314E4,2.96E2,5E-1,1.85E1,5.605E2,7.15E2,4.4808E4,1.35E1,2.0185E3,5E1,8.0394E4,-8.1611255E2,6.18835E4,1E0,5E-1,2.45E1,2.55E1,5.32925E4,5E-1,3.39E2,1.875E2,2.6711993E2,5E-1,6.125E2,6.935E2,5E-1,1.95E1,1.65E1,3.75E1,1.85E1,1.35E1,5E-1,2.95295E4,5E-1,7.1612537E2,2.0155E3,5.4E1,2.0155E3,3.25E1,4.25E1,-1.0520655E2,7.204597E2,8.70075E4,2.7440688E3,9.109075E2,-1.328047E1,7.516282E2,-1.2160727E2,2.0000925E2,-3.1655457E2,-5.018196E1,2.2294618E2,4.1865036E1,-1.1682919E3,-5.82951E2,-2.6876234E1,-3.3249542E2,7.7609717E2,-3.6683598E1,-4.8309376E1,1.5056556E3,-1.4358604E2,1.1422281E2,-4.9194687E1,6.5043524E2,-3.6134247E2,1.5531393E2,-2.3645076E2,2.8283401E1,-7.3832544E2,9.7408856E2,2.9882864E2,-5.1352245E1,9.0961755E2,1.3350444E2,-9.3245667E2,-1.26684525E2,5.979494E2,9.0842094E1,1.7437479E3,7.7577545E2,7.560127E2,1.2790935E2,-1.0931542E3,-1.7590254E2,-6.5773415E1,4.2140793E2,-2.2446367E2,1.8682704E2,1.0358777E2,-2.3420047E2,5.6841328E1,-3.1937857E2,1.2261914E1,4.1416595E2,3.98751E1,2.9560327E2],"split_indices":[19,21,18,22,21,20,17,17,21,20,17,21,20,20,22,0,0,19,12,19,0,20,16,22,21,21,0,22,19,17,0,0,0,22,7,18,18,0,2,20,20,0,14,21,21,12,17,22,22,17,22,14,0,5,0,19,20,19,17,17,0,0,0,0,0,0,0,0,0,0,0,0,0,0,0,0,0,0,0,0,0,0,0,0,0,0,0,0,0,0,0,0,0,0,0,0,0,0,0,0,0,0,0,0,0,0,0,0,0,0,0,0,0,0,0,0,0],"split_type":[0,0,0,0,0,0,0,0,0,0,0,0,0,0,0,0,0,0,0,0,0,0,0,0,0,0,0,0,0,0,0,0,0,0,0,0,0,0,0,0,0,0,0,0,0,0,0,0,0,0,0,0,0,0,0,0,0,0,0,0,0,0,0,0,0,0,0,0,0,0,0,0,0,0,0,0,0,0,0,0,0,0,0,0,0,0,0,0,0,0,0,0,0,0,0,0,0,0,0,0,0,0,0,0,0,0,0,0,0,0,0,0,0,0,0,0,0],"sum_hessian":[5.098E3,2.856E3,2.242E3,2.061E3,7.95E2,1.838E3,4.04E2,6.1E1,2E3,4.3E1,7.52E2,1.77E3,6.8E1,3.74E2,3E1,2.1E1,4E1,1.947E3,5.3E1,3.5E1,8E0,3.65E2,3.87E2,9.98E2,7.72E2,6.2E1,6E0,1.41E2,2.33E2,7E0,2.3E1,1E0,2E1,1.3E1,2.7E1,2.88E2,1.659E3,3.2E1,2.1E1,7E0,2.8E1,2E0,6E0,2.35E2,1.3E2,3.67E2,2E1,6.74E2,3.24E2,2.58E2,5.14E2,3.8E1,2.4E1,5E0,1E0,5.6E1,8.5E1,1.36E2,9.7E1,6E0,1E0,1.9E1,4E0,3E0,1.7E1,2E0,1.1E1,7E0,2E1,7.9E1,2.09E2,3.44E2,1.315E3,9E0,2.3E1,1.2E1,9E0,5E0,2E0,1E0,2.7E1,5E0,1E0,7E1,1.65E2,2.9E1,1.01E2,8E1,2.87E2,5E0,1.5E1,5.07E2,1.67E2,2.37E2,8.7E1,3.7E1,2.21E2,2.05E2,3.09E2,2.3E1,1.5E1,1.2E1,1.2E1,4E0,1E0,1.3E1,4.3E1,4.7E1,3.8E1,1.3E1,1.23E2,8.6E1,1.1E1,1E0,5E0,1E0,3E0],"tree_param":{"num_deleted":"0","num_feature":"23","num_nodes":"117","size_leaf_vector":"0"}},{"base_weights":[3.6213162E2,5.0263614E2,7.6902664E1,8.577664E2,3.4467142E2,-3.2827502E2,1.842231E2,-1.1452471E1,1.0722493E3,3.020011E2,2.0080345E3,-8.3726006E1,-1.7747472E3,-4.0038727E1,4.5872052E2,1.0710552E3,-1.6032407E3,8.386878E2,2.358483E3,3.7317258E3,2.8094742E2,6.889443E2,3.7744395E3,-4.7114767E2,6.201478E2,-7.5958875E2,-2.9775667E3,-7.814175E2,7.274149E1,1.2374194E3,1.7932425E2,3.5890558E2,7.1788896E3,-1.9638356E3,2.6953633E3,-8.337495E2,9.469446E2,1.5961858E3,4.9320522E3,1.3775345E3,5.3251772E3,6.413108E2,1.0870124E2,-1.4016504E3,1.0039129E3,1.773854E3,6.1593794E3,-2.8199927E2,-1.5506575E3,2.0387122E3,9.816642E1,-1.8623931E3,1.781353E1,-3.89628E3,-1.8107225E3,-1.6935339E3,-3.477305E2,6.094491E3,5.3720707E1,1.6016888E3,-4.1540474E1,6.522125E2,-8.8666756E1,5.9394756E3,-2.4056216E2,1.6875275E4,4.964585E3,-3.158544E3,-5.223141E2,-1.217809E3,8.318862E3,2.0572402E3,-1.5333373E3,4.500786E3,8.9734894E2,-5.5430058E1,3.7370388E3,1.2208581E4,2.5030198E3,3.34972E3,-8.128359E1,5.7231206E3,1.2697871E3,-9.249482E1,9.1597974E2,-7.175261E2,2.0537248E2,3.3457748E2,-2.6706614E3,-4.4489877E2,1.2996421E3,3.0156396E3,-5.9143097E2,-7.216832E2,-2.4593632E1,-2.0912715E3,2.3509985E3,2.5613035E3,3.0381697E1,-6.1538845E1,3.1479512E3,-2.340916E3,-7.242777E2,1.9543365E3,-8.773366E2,-4.1206675E3,-7.1400977E2,-2.111817E3,7.506582E2,-1.9125243E3,2.6278174E2,-8.6473047E2,-3.9062386E1,5.0536942E2,-1.3225359E2,4.41694E2,2.0221127E3,-3.1404675E2,3.060711E3,-5.403923E2,1.015357E3,2.9572588E1,-1.1253E3],"categories":[],"categories_nodes":[],"categories_segments":[],"categories_sizes":[],"default_left":[true,true,true,true,true,true,true,true,true,true,true,true,true,true,true,true,true,true,true,true,true,true,true,true,true,true,true,true,true,true,true,true,true,true,true,true,true,true,true,true,true,true,true,true,true,true,false,true,true,true,true,true,true,true,true,true,true,false,true,true,true,true,true,false,false,false,false,false,false,false,false,false,false,false,false,false,false,false,false,false,false,false,false,false,false,false,false,false,false,false,false,false,false,false,false,false,false,false,false,false,false,false,false,false,false,false,false,false,false,false,false,false,false,false,false,false,false,false,false,false,false,false,false],"id":12,"left_children":[1,3,5,7,9,11,13,15,17,19,21,23,25,27,29,31,33,35,37,39,41,43,45,47,49,51,53,55,57,59,61,63,65,67,69,71,73,75,77,79,81,83,85,87,89,91,-1,93,95,97,99,101,103,105,107,109,111,-1,113,115,117,119,121,-1,-1,-1,-1,-1,-1,-1,-1,-1,-1,-1,-1,-1,-1,-1,-1,-1,-1,-1,-1,-1,-1,-1,-1,-1,-1,-1,-1,-1,-1,-1,-1,-1,-1,-1,-1,-1,-1,-1,-1,-1,-1,-1,-1,-1,-1,-1,-1,-1,-1,-1,-1,-1,-1,-1,-1,-1,-1,-1,-1],"loss_changes":[2.0430867E8,1.9133536E8,7.328727E7,1.9595283E8,1.6732336E8,1.2471928E8,8.201534E7,3.6184986E8,2.5127136E8,1.6560822E8,1.3487243E8,8.2919064E7,6.0011936E7,6.142868E7,1.3009989E8,5.41135E8,1.3704786E8,1.3024221E8,2.4520282E8,4.518243E7,1.4238376E8,2.445365E7,1.0835606E8,3.9583476E7,7.977E7,2.4895532E7,1.7600816E7,3.7781692E7,7.274811E7,7.36765E7,5.6072404E7,3.794558E8,1.9534112E8,1.3440387E8,1.6417085E8,9.214449E7,1.1440467E8,3.5732966E8,4.8201453E8,2.0411696E7,5.643392E6,1.496375E8,1.242691E8,1.1910005E7,1.386034E7,4.5841196E7,0E0,1.8996008E7,6.608599E7,3.0358728E7,3.9159056E7,4.8399E6,3.2917232E7,5.626528E6,1.0839864E7,1.3783416E7,1.0658176E7,0E0,5.357168E7,5.909267E7,3.1394994E7,6.984275E7,3.4720828E7,0E0,0E0,0E0,0E0,0E0,0E0,0E0,0E0,0E0,0E0,0E0,0E0,0E0,0E0,0E0,0E0,0E0,0E0,0E0,0E0,0E0,0E0,0E0,0E0,0E0,0E0,0E0,0E0,0E0,0E0,0E0,0E0,0E0,0E0,0E0,0E0,0E0,0E0,0E0,0E0,0E0,0E0,0E0,0E0,0E0,0E0,0E0,0E0,0E0,0E0,0E0,0E0,0E0,0E0,0E0,0E0,0E0,0E0,0E0,0E0],"parents":[2147483647,0,0,1,1,2,2,3,3,4,4,5,5,6,6,7,7,8,8,9,9,10,10,11,11,12,12,13,13,14,14,15,15,16,16,17,17,18,18,19,19,20,20,21,21,22,22,23,23,24,24,25,25,26,26,27,27,28,28,29,29,30,30,31,31,32,32,33,33,34,34,35,35,36,36,37,37,38,38,39,39,40,40,41,41,42,42,43,43,44,44,45,45,47,47,48,48,49,49,50,50,51,51,52,52,53,53,54,54,55,55,56,56,58,58,59,59,60,60,61,61,62,62],"right_children":[2,4,6,8,10,12,14,16,18,20,22,24,26,28,30,32,34,36,38,40,42,44,46,48,50,52,54,56,58,60,62,64,66,68,70,72,74,76,78,80,82,84,86,88,90,92,-1,94,96,98,100,102,104,106,108,110,112,-1,114,116,118,120,122,-1,-1,-1,-1,-1,-1,-1,-1,-1,-1,-1,-1,-1,-1,-1,-1,-1,-1,-1,-1,-1,-1,-1,-1,-1,-1,-1,-1,-1,-1,-1,-1,-1,-1,-1,-1,-1,-1,-1,-1,-1,-1,-1,-1,-1,-1,-1,-1,-1,-1,-1,-1,-1,-1,-1,-1,-1,-1,-1,-1],"split_conditions":[6.46195E4,2.65E1,9.5E0,6E0,5E-1,6.5E0,5E-1,5.19E2,7.49E2,1.65E1,1.65E1,4.86E2,5E-1,2.16E2,2.55E1,4.54E2,5E-1,2.0095E3,2.2E1,6.455E2,3.705E2,2.0105E3,2.05E1,3.955E2,7.735E2,4.845E2,5.24E2,5E-1,2.23E2,8.72575E4,3.725E2,5E-1,4.61E2,6.175E2,2.0105E3,1.45E1,2.5E0,2.0145E3,2.25E1,1.5826E4,5.4702E4,8.55E1,1.95E1,2.75E1,4E0,5E-1,1.8478138E3,2.0115E3,5E-1,5E-1,4.36E2,7.80935E4,1.55E1,9.6343E4,5E-1,5E-1,1.705E2,1.8283474E3,9.7E1,3.115E2,1.00694E5,1.38E2,9.28335E4,1.7818428E3,-7.2168655E1,5.062583E3,1.4893755E3,-9.4756323E2,-1.5669423E2,-3.653427E2,2.4956587E3,6.171721E2,-4.600012E2,1.3502358E3,2.6920468E2,-1.6629019E1,1.1211117E3,3.6625745E3,7.5090594E2,1.004916E3,-2.4385078E1,1.7169363E3,3.8093616E2,-2.7748447E1,2.7479395E2,-2.1525784E2,6.1611748E1,1.0037325E2,-8.011984E2,-1.3346964E2,3.8989264E2,9.0469196E2,-1.7742929E2,-2.1650497E2,-7.37809E0,-6.273815E2,7.0529956E2,7.6839105E2,9.11451E0,-1.8461655E1,9.443854E2,-7.0227484E2,-2.1728333E2,5.8630096E2,-2.63201E2,-1.2362003E3,-2.1420294E2,-6.335451E2,2.2519746E2,-5.737573E2,7.8834526E1,-2.5941916E2,-1.1718716E1,1.5161082E2,-3.967608E1,1.3250821E2,6.0663385E2,-9.421403E1,9.182133E2,-1.6211769E2,3.0460712E2,8.871777E0,-3.3759003E2],"split_indices":[0,18,22,17,16,22,2,21,21,17,22,21,2,21,18,21,15,19,22,21,21,19,17,21,21,21,21,12,21,0,21,1,21,21,19,17,22,19,18,0,0,21,17,18,20,8,0,19,15,9,20,0,17,0,9,11,20,0,20,21,0,21,0,0,0,0,0,0,0,0,0,0,0,0,0,0,0,0,0,0,0,0,0,0,0,0,0,0,0,0,0,0,0,0,0,0,0,0,0,0,0,0,0,0,0,0,0,0,0,0,0,0,0,0,0,0,0,0,0,0,0,0,0],"split_type":[0,0,0,0,0,0,0,0,0,0,0,0,0,0,0,0,0,0,0,0,0,0,0,0,0,0,0,0,0,0,0,0,0,0,0,0,0,0,0,0,0,0,0,0,0,0,0,0,0,0,0,0,0,0,0,0,0,0,0,0,0,0,0,0,0,0,0,0,0,0,0,0,0,0,0,0,0,0,0,0,0,0,0,0,0,0,0,0,0,0,0,0,0,0,0,0,0,0,0,0,0,0,0,0,0,0,0,0,0,0,0,0,0,0,0,0,0,0,0,0,0,0,0],"sum_hessian":[5.098E3,3.415E3,1.683E3,1.05E3,2.365E3,3.52E2,1.331E3,2.08E2,8.42E2,2.307E3,5.8E1,3.02E2,5E1,7.33E2,5.98E2,1.24E2,8.4E1,7.14E2,1.28E2,1.3E1,2.294E3,3.4E1,2.4E1,1.95E2,1.07E2,2.8E1,2.2E1,9.6E1,6.37E2,1.57E2,4.41E2,1.12E2,1.2E1,7.8E1,6E0,4.3E1,6.71E2,1E2,2.8E1,6E0,7E0,7.41E2,1.553E3,4E0,3E1,1.4E1,1E1,1.67E2,2.8E1,2.8E1,7.9E1,1.1E1,1.7E1,1.1E1,1.1E1,3E1,6.6E1,1E0,6.36E2,1.22E2,3.5E1,1.59E2,2.82E2,1E1,1.02E2,1E0,1.1E1,4.2E1,3.6E1,4E0,2E0,8E0,3.5E1,8E0,6.63E2,5.7E1,4.3E1,6E0,2.2E1,2E0,4E0,6E0,1E0,2.02E2,5.39E2,1.62E2,1.391E3,2E0,2E0,5E0,2.5E1,9E0,5E0,6.1E1,1.06E2,2.5E1,3E0,2.2E1,6E0,7.6E1,3E0,7E0,4E0,5E0,1.2E1,1E1,1E0,1E1,1E0,2.7E1,3E0,2.4E1,4.2E1,1.85E2,4.51E2,3.3E1,8.9E1,3.3E1,2E0,3.7E1,1.22E2,2.54E2,2.8E1],"tree_param":{"num_deleted":"0","num_feature":"23","num_nodes":"123","size_leaf_vector":"0"}},{"base_weights":[2.581085E2,9.0713983E2,2.1242462E2,7.886355E2,3.220531E3,-2.580284E2,2.6518436E2,4.2412903E2,1.7599674E3,1.8166146E4,1.0130802E3,-1.5684603E3,-1.484913E2,2.8479373E3,2.3833232E2,2.6373096E3,2.9261786E2,3.5042273E3,1.1518813E3,-2.4256418E2,1.877128E3,-5.8048425E2,-4.5776655E3,4.6878064E2,-3.6250275E2,2.1521653E3,5.314588E3,1.6144571E2,6.148415E2,5.1133026E2,7.2929307E3,-7.315776E2,5.718679E2,5.637111E3,3.8105566E2,2.925805E3,7.4390015E2,-1.8752031E3,1.4507158E3,5.509245E1,2.3898394E3,-1.0534664E3,1.0565265E3,-4.9981465E3,-6.069082E2,-9.227615E2,9.2723975E2,-2.4914514E2,-1.8021544E3,2.792851E3,8.038093E2,5.8001074E3,7.1521484E2,2.3341394E2,-6.212981E2,4.229032E3,4.513368E2,1.1549705E3,-1.3754869E3,3.2524805E2,9.507075E3,7.1849066E2,-1.2348917E3,4.9249116E3,3.881805E2,7.874579E3,1.7143014E3,1.5851127E3,-1.8213081E3,3.079972E3,6.149844E2,-1.1336557E2,1.6371151E3,2.1571992E3,-3.343672E2,2.9768555E2,-2.1504688E2,2.732596E3,1.6664941E2,-2.8802024E3,-7.423391E2,2.0091139E3,2.7366876E2,-2.134575E3,-5.8135974E2,1.50138E3,2.4646332E2,-3.1934732E2,2.4233552E3,-2.300326E3,-2.636914E2,3.3859668E3,1.1833743E3,-1.1991348E3,1.0706493E3,1.22466805E2,6.8715906E2,-9.434336E2,2.9212734E3,2.4664985E3,6.814169E3,1.9465682E3,3.1340204E2],"categories":[],"categories_nodes":[],"categories_segments":[],"categories_sizes":[],"default_left":[true,true,true,true,true,true,true,true,true,false,true,true,true,true,true,true,true,true,true,true,true,true,true,true,true,true,true,true,true,true,true,true,true,true,true,true,true,false,true,true,true,true,true,false,false,true,true,true,true,true,true,false,false,true,true,true,true,false,false,false,false,false,false,false,false,false,false,false,false,false,false,false,false,false,false,false,false,false,false,false,false,false,false,false,false,false,false,false,false,false,false,false,false,false,false,false,false,false,false,false,false,false,false],"id":13,"left_children":[1,3,5,7,9,11,13,15,17,-1,19,21,23,25,27,29,31,33,35,37,39,41,43,45,47,49,51,53,55,57,59,61,63,65,67,69,71,-1,73,75,77,79,81,-1,-1,83,85,87,89,91,93,-1,-1,95,97,99,101,-1,-1,-1,-1,-1,-1,-1,-1,-1,-1,-1,-1,-1,-1,-1,-1,-1,-1,-1,-1,-1,-1,-1,-1,-1,-1,-1,-1,-1,-1,-1,-1,-1,-1,-1,-1,-1,-1,-1,-1,-1,-1,-1,-1,-1,-1],"loss_changes":[1.5099398E8,8.929942E7,1.1834042E8,1.125517E8,5.0946355E8,6.881028E7,2.9649526E8,6.733584E7,8.824099E7,0E0,1.6729377E7,1.0734459E8,5.895588E7,6.4076064E7,1.2270034E8,1.24941704E8,6.391184E7,1.4440189E8,4.5589504E7,2.207199E7,8.27594E6,2.3567048E7,1.1993232E7,7.422162E7,5.3568696E7,2.8854496E7,1.5949456E7,1.986614E8,4.2297514E8,1.3732962E7,5.861768E7,3.5919576E7,1.3801814E8,1.0060371E8,2.9404694E7,2.380888E6,4.230034E7,0E0,5.765822E6,2.6061816E5,4.878708E6,1.0933906E7,4.670351E6,0E0,0E0,1.0756786E7,3.363489E7,5.8559424E7,1.7787472E7,1.890368E7,8.231903E6,0E0,0E0,1.6241894E8,3.416889E8,1.2444102E8,1.4149232E8,0E0,0E0,0E0,0E0,0E0,0E0,0E0,0E0,0E0,0E0,0E0,0E0,0E0,0E0,0E0,0E0,0E0,0E0,0E0,0E0,0E0,0E0,0E0,0E0,0E0,0E0,0E0,0E0,0E0,0E0,0E0,0E0,0E0,0E0,0E0,0E0,0E0,0E0,0E0,0E0,0E0,0E0,0E0,0E0,0E0,0E0],"parents":[2147483647,0,0,1,1,2,2,3,3,4,4,5,5,6,6,7,7,8,8,10,10,11,11,12,12,13,13,14,14,15,15,16,16,17,17,18,18,19,19,20,20,21,21,22,22,23,23,24,24,25,25,26,26,27,27,28,28,29,29,30,30,31,31,32,32,33,33,34,34,35,35,36,36,38,38,39,39,40,40,41,41,42,42,45,45,46,46,47,47,48,48,49,49,50,50,53,53,54,54,55,55,56,56],"right_children":[2,4,6,8,10,12,14,16,18,-1,20,22,24,26,28,30,32,34,36,38,40,42,44,46,48,50,52,54,56,58,60,62,64,66,68,70,72,-1,74,76,78,80,82,-1,-1,84,86,88,90,92,94,-1,-1,96,98,100,102,-1,-1,-1,-1,-1,-1,-1,-1,-1,-1,-1,-1,-1,-1,-1,-1,-1,-1,-1,-1,-1,-1,-1,-1,-1,-1,-1,-1,-1,-1,-1,-1,-1,-1,-1,-1,-1,-1,-1,-1,-1,-1,-1,-1,-1,-1],"split_conditions":[1.37635E4,1.3436E4,1.415E2,5E-1,1.34475E4,1.65E1,1.625E2,1.35E1,2.0165E3,5.449844E3,1.4E1,5.5E0,5.5E0,5E-1,2.95E1,6.5E0,2.55E1,6.34E2,2.57E2,2E1,5E-1,2.012E3,8.65905E4,2.0115E3,1.2E2,3.1E1,8.5539E4,2.55E1,3.05E1,4.915E2,1.0175E3,2.0115E3,1.75E1,1.11105E4,7.34E2,3.35E1,6.095E2,-5.62561E2,3.55E1,1.34985E4,2.6E1,2.7169E4,5E-1,-1.499444E3,-1.8207246E2,5.69675E4,3.05E1,1.125E2,1.95E1,6.64495E4,2.65535E4,1.7400323E3,2.1456447E2,1.85E1,6.5E2,8.75E1,2.05E1,3.4649115E2,-4.126461E2,9.757442E1,2.8521226E3,2.1554721E2,-3.7046753E2,1.4774735E3,1.16454155E2,2.3623738E3,5.1429047E2,4.755338E2,-5.4639246E2,9.2399164E2,1.8449532E2,-3.4009674E1,4.9113455E2,6.471598E2,-1.0031016E2,8.9305664E1,-6.451407E1,8.197788E2,4.9994827E1,-8.640607E2,-2.2270174E2,6.027342E2,8.210063E1,-6.403725E2,-1.7440793E2,4.5041403E2,7.3938995E1,-9.58042E1,7.270066E2,-6.900978E2,-7.910742E1,1.0157901E3,3.550123E2,-3.5974045E2,3.211948E2,3.6740044E1,2.0614772E2,-2.830301E2,8.763821E2,7.399496E2,2.0442507E3,5.839705E2,9.4020615E1],"split_indices":[0,0,21,5,0,17,21,17,19,0,22,22,22,14,22,17,18,21,21,17,3,19,0,19,21,18,0,22,22,21,0,19,17,0,21,18,21,0,18,0,17,0,3,0,0,0,18,21,17,0,0,0,0,22,21,20,18,0,0,0,0,0,0,0,0,0,0,0,0,0,0,0,0,0,0,0,0,0,0,0,0,0,0,0,0,0,0,0,0,0,0,0,0,0,0,0,0,0,0,0,0,0,0],"split_type":[0,0,0,0,0,0,0,0,0,0,0,0,0,0,0,0,0,0,0,0,0,0,0,0,0,0,0,0,0,0,0,0,0,0,0,0,0,0,0,0,0,0,0,0,0,0,0,0,0,0,0,0,0,0,0,0,0,0,0,0,0,0,0,0,0,0,0,0,0,0,0,0,0,0,0,0,0,0,0,0,0,0,0,0,0,0,0,0,0,0,0,0,0,0,0,0,0,0,0,0,0,0,0],"sum_hessian":[5.098E3,3.34E2,4.764E3,3.19E2,1.5E1,4.8E2,4.284E3,2.33E2,8.6E1,1E0,1.4E1,3.6E1,4.44E2,4.3E1,4.241E3,1.2E1,2.21E2,2.1E1,6.5E1,6E0,8E0,2.8E1,8E0,1.14E2,3.3E2,3.5E1,8E0,3.523E3,7.18E2,9E0,3E0,4.7E1,1.74E2,1.2E1,9E0,1.1E1,5.4E1,3E0,3E0,2E0,6E0,2.2E1,6E0,7E0,1E0,2.8E1,8.6E1,3.07E2,2.3E1,2.3E1,1.2E1,7E0,1E0,3.227E3,2.96E2,3E1,6.88E2,7E0,2E0,1E0,2E0,1.2E1,3.5E1,6E0,1.68E2,7E0,5E0,6E0,3E0,1E1,1E0,2.8E1,2.6E1,2E0,1E0,1E0,1E0,5E0,1E0,2E0,2E1,2E0,4E0,5E0,2.3E1,4.6E1,4E1,3E2,7E0,1.7E1,6E0,1.6E1,7E0,1E0,1.1E1,2.594E3,6.33E2,2.72E2,2.4E1,1.9E1,1.1E1,5.7E1,6.31E2],"tree_param":{"num_deleted":"0","num_feature":"23","num_nodes":"103","size_leaf_vector":"0"}},{"base_weights":[1.8461697E2,-8.043257E1,3.113263E2,-4.6841888E2,3.444284E1,7.799876E2,2.1946732E2,-6.5803595E2,7.0316534E2,7.627043E1,-1.645169E3,3.804036E2,1.8631968E3,6.6856647E2,1.1885527E2,6.531704E2,-8.287575E2,3.6007493E3,3.2631808E2,2.1822057E2,-4.2237436E2,-2.3767866E3,-2.887086E2,5.8214777E2,-1.6311216E3,-6.5114136E2,1.9890692E3,-2.4655918E1,1.01524774E3,-8.4165665E1,4.2814508E2,-7.12916E2,2.5760964E3,-1.8179142E3,-6.572055E2,4.1053823E3,5.38792E2,-1.5590033E2,1.3004987E3,8.6976764E2,4.870416E1,-3.1321963E3,-2.8733624E2,-1.2184518E3,-3.0474722E3,-1.0707268E3,2.3614136E2,9.1501335E1,1.1601846E3,-2.3553257E3,-2.2139133E2,7.595084E1,-1.8882787E3,3.129028E3,1.6385585E3,2.2457444E3,-5.8017584E2,3.9853538E3,8.3381415E2,1.185799E3,-1.5758783E2,2.442534E3,1.7583188E2,-1.1882464E2,-1.4733523E3,3.3243225E3,-1.7743236E3,-2.6853499E3,-7.294674E2,-7.357531E2,1.0948846E3,-1.417073E3,6.691911E1,1.6177667E3,-1.7292607E3,4.804115E3,5.9308527E2,-1.6798054E3,1.13777596E2,-5.928532E2,1.7364996E2,-4.6054834E2,-1.5206455E3,-4.1956196E3,-2.1985764E3,-1.1963376E3,-2.841416E2,3.37226E2,-2.3572559E2,2.9365317E2,-1.6033822E3,1.5441225E4,9.8738074E2,-3.1479163E3,1.324668E2,5.323135E2,-1.0511409E3,8.391709E2,-2.4452734E2,1.5239994E3,5.1984243E3,1.472989E3,4.345715E3,3.9445535E3,-1.3390194E3,-1.9793505E3,7.512078E2,8.990724E3,5.985604E2,-1.8080374E3,1.0174261E3,4.518509E3,6.29246E2,-9.64611E2,-4.4989502E1,1.2262822E4,2.2281348E3,-5.509128E2,3.4568347E2],"categories":[],"categories_nodes":[],"categories_segments":[],"categories_sizes":[],"default_left":[true,true,true,true,true,true,true,true,true,true,true,true,true,true,true,true,true,true,true,true,true,true,true,true,true,true,true,true,true,true,true,true,true,true,true,false,false,true,true,true,true,false,true,true,true,true,true,true,true,true,true,true,false,true,true,true,true,true,true,true,true,true,true,false,false,false,false,false,false,false,false,false,false,false,false,false,false,false,false,false,false,false,false,false,false,false,false,false,false,false,false,false,false,false,false,false,false,false,false,false,false,false,false,false,false,false,false,false,false,false,false,false,false,false,false,false,false,false,false],"id":14,"left_children":[1,3,5,7,9,11,13,15,17,19,21,23,25,27,29,31,33,35,37,39,41,43,45,47,49,51,53,55,57,59,61,63,65,67,69,-1,-1,71,73,75,77,-1,79,81,83,85,87,89,91,93,95,97,-1,99,101,103,105,107,109,111,113,115,117,-1,-1,-1,-1,-1,-1,-1,-1,-1,-1,-1,-1,-1,-1,-1,-1,-1,-1,-1,-1,-1,-1,-1,-1,-1,-1,-1,-1,-1,-1,-1,-1,-1,-1,-1,-1,-1,-1,-1,-1,-1,-1,-1,-1,-1,-1,-1,-1,-1,-1,-1,-1,-1,-1,-1,-1],"loss_changes":[1.712711E8,7.3556776E7,1.4835389E8,8.421416E7,8.962921E7,2.4384189E8,1.3032382E8,7.329294E7,5.6698184E7,8.814585E7,3.0078528E7,1.6895634E8,4.940099E7,1.2691781E8,1.4816309E8,1.01658104E8,4.7676496E7,7.05904E6,2.2751602E7,1.0698167E8,1.0009648E8,1.1824376E7,5.1781495E6,1.06815464E8,3.8273976E7,7.3395195E6,5.281024E7,2.2454462E8,1.8636163E8,1.3305894E8,4.7479075E8,1.0215609E7,5.7979984E7,3.7695744E7,3.479833E7,0E0,0E0,9.368285E6,1.8177472E7,2.1486366E8,8.680077E7,0E0,3.7284476E7,1.360972E6,2.471496E6,1.54089E5,4.610808E5,7.070872E7,4.1168634E8,4.9712016E7,9.314944E6,1.6727725E6,0E0,1.0168512E8,4.4247904E7,2.1842589E8,2.6787277E8,3.336616E8,1.6336968E8,1.4183347E8,1.2244864E8,1.9164474E8,1.0289148E8,0E0,0E0,0E0,0E0,0E0,0E0,0E0,0E0,0E0,0E0,0E0,0E0,0E0,0E0,0E0,0E0,0E0,0E0,0E0,0E0,0E0,0E0,0E0,0E0,0E0,0E0,0E0,0E0,0E0,0E0,0E0,0E0,0E0,0E0,0E0,0E0,0E0,0E0,0E0,0E0,0E0,0E0,0E0,0E0,0E0,0E0,0E0,0E0,0E0,0E0,0E0,0E0,0E0,0E0,0E0,0E0],"parents":[2147483647,0,0,1,1,2,2,3,3,4,4,5,5,6,6,7,7,8,8,9,9,10,10,11,11,12,12,13,13,14,14,15,15,16,16,17,17,18,18,19,19,20,20,21,21,22,22,23,23,24,24,25,25,26,26,27,27,28,28,29,29,30,30,31,31,32,32,33,33,34,34,37,37,38,38,39,39,40,40,42,42,43,43,44,44,45,45,46,46,47,47,48,48,49,49,50,50,51,51,53,53,54,54,55,55,56,56,57,57,58,58,59,59,60,60,61,61,62,62],"right_children":[2,4,6,8,10,12,14,16,18,20,22,24,26,28,30,32,34,36,38,40,42,44,46,48,50,52,54,56,58,60,62,64,66,68,70,-1,-1,72,74,76,78,-1,80,82,84,86,88,90,92,94,96,98,-1,100,102,104,106,108,110,112,114,116,118,-1,-1,-1,-1,-1,-1,-1,-1,-1,-1,-1,-1,-1,-1,-1,-1,-1,-1,-1,-1,-1,-1,-1,-1,-1,-1,-1,-1,-1,-1,-1,-1,-1,-1,-1,-1,-1,-1,-1,-1,-1,-1,-1,-1,-1,-1,-1,-1,-1,-1,-1,-1,-1,-1,-1,-1],"split_conditions":[2.0125E3,2.72E2,7.45E1,2.45E2,3.85E1,5.25E1,2.45E1,2E1,2.775E2,2.35E1,5E-1,6.94E2,6E0,6E0,1.85E1,1.405E2,4.4167E4,8.5921E4,1.34E2,3.825E2,5.45E1,1.38E2,2.95E1,3.13E2,3.05E1,2.0165E3,2.95E1,5E-1,1.35E1,3.5E0,2.05E1,1.385E2,2.8E1,2.0115E3,2.85E1,1.2316147E3,1.616376E2,3.7781E4,4.495E2,7E0,3.895E2,-9.3965894E2,3.6E1,5.7588E4,4.90865E4,5E-1,9.19745E4,5E-1,3.555E2,6.7552E4,6.42475E4,5E-1,-5.6648364E2,2.15E2,2.0195E3,5E-1,5E-1,2.555E2,9.4E1,1.85E1,1.85E1,5E-1,2.45E1,-3.5647392E1,-4.420057E2,9.972968E2,-5.322971E2,-8.05605E2,-2.1884023E2,-2.2072594E2,3.284654E2,-4.2512192E2,2.0075735E1,4.8533005E2,-5.1877826E2,1.4412346E3,1.7792558E2,-5.0394165E2,3.413328E1,-1.7785597E2,5.209499E1,-1.381645E2,-4.5619366E2,-1.2586859E3,-6.5957294E2,-3.589013E2,-8.5242485E1,1.0116781E2,-7.071768E1,8.8095955E1,-4.8101468E2,4.6323677E3,2.9621423E2,-9.4437494E2,3.974004E1,1.5969405E2,-3.153423E2,2.5175128E2,-7.335821E1,4.5719983E2,1.5595273E3,4.4189673E2,1.3037145E3,1.1833661E3,-4.0170584E2,-5.938052E2,2.2536235E2,2.6972173E3,1.7956813E2,-5.4241125E2,3.0522784E2,1.3555527E3,1.887738E2,-2.8938333E2,-1.3496851E1,3.678847E3,6.684404E2,-1.6527383E2,1.0370505E2],"split_indices":[19,21,20,20,22,20,18,18,20,17,12,21,17,17,22,21,0,0,21,21,20,20,18,21,18,19,18,6,17,22,22,21,22,19,17,0,0,0,20,22,21,0,22,0,0,6,0,15,21,0,0,2,0,21,19,5,8,20,20,17,17,8,22,0,0,0,0,0,0,0,0,0,0,0,0,0,0,0,0,0,0,0,0,0,0,0,0,0,0,0,0,0,0,0,0,0,0,0,0,0,0,0,0,0,0,0,0,0,0,0,0,0,0,0,0,0,0,0,0],"split_type":[0,0,0,0,0,0,0,0,0,0,0,0,0,0,0,0,0,0,0,0,0,0,0,0,0,0,0,0,0,0,0,0,0,0,0,0,0,0,0,0,0,0,0,0,0,0,0,0,0,0,0,0,0,0,0,0,0,0,0,0,0,0,0,0,0,0,0,0,0,0,0,0,0,0,0,0,0,0,0,0,0,0,0,0,0,0,0,0,0,0,0,0,0,0,0,0,0,0,0,0,0,0,0,0,0,0,0,0,0,0,0,0,0,0,0,0,0,0,0],"sum_hessian":[5.098E3,1.649E3,3.449E3,3.76E2,1.273E3,5.64E2,2.885E3,3.24E2,5.2E1,1.243E3,3E1,4.13E2,1.51E2,5.27E2,2.358E3,3.7E1,2.87E2,5E0,4.7E1,9.68E2,2.75E2,1.9E1,1.1E1,3.76E2,3.7E1,7E0,1.44E2,1.76E2,3.51E2,1.424E3,9.34E2,2.2E1,1.5E1,4.1E1,2.46E2,4E0,1E0,3.2E1,1.5E1,1.99E2,7.69E2,1.2E1,2.63E2,8E0,1.1E1,4E0,7E0,2.04E2,1.72E2,2.4E1,1.3E1,5E0,2E0,3.2E1,1.12E2,3.4E1,1.42E2,1.9E1,3.32E2,7.7E1,1.347E3,1.03E2,8.31E2,1.3E1,9E0,1.3E1,2E0,2.2E1,1.9E1,2.36E2,1E1,4E0,2.8E1,1.4E1,1E0,1.2E1,1.87E2,2.7E1,7.42E2,1.58E2,1.05E2,3E0,5E0,3E0,8E0,3E0,1E0,6E0,1E0,1.83E2,2.1E1,1E0,1.71E2,1.8E1,6E0,7E0,6E0,1E0,4E0,1.9E1,1.3E1,1.07E2,5E0,2.3E1,1.1E1,6.9E1,7.3E1,7E0,1.2E1,2.1E1,3.11E2,1E1,6.7E1,1.64E2,1.183E3,1E0,1.02E2,1.57E2,6.74E2],"tree_param":{"num_deleted":"0","num_feature":"23","num_nodes":"119","size_leaf_vector":"0"}},{"base_weights":[1.317053E2,-3.0875403E2,1.7555191E2,-3.7582153E1,-6.426248E2,6.9750183E2,1.3409996E2,-1.806095E2,1.8217195E4,-1.5201434E3,-3.534778E2,-7.1463234E1,9.183049E2,-2.5523434E2,2.2062978E2,-1.3815434E1,-1.1040377E3,-2.9064326E3,-7.4151556E2,-2.5375342E2,-2.8209163E3,7.9393555E1,-3.8190618E3,1.605548E3,6.2306146E2,5.7406246E1,-1.4428535E3,4.459581E2,8.830104E1,-1.3103455E2,1.6952212E3,4.968006E1,-1.6186412E3,-1.8121028E2,-3.2357598E3,-2.0896174E3,8.879532E1,-6.33709E2,2.9306805E2,-3.6612744E2,7.987071E2,1.381365E3,6.824396E3,9.5393134E2,-2.7734192E1,1.1723694E3,-3.5959857E2,1.2845365E3,-1.5552668E3,7.55056E2,8.580112E1,6.066417E3,8.286578E1,-6.571148E2,9.797253E1,-1.4200078E3,2.33276E3,1.386862E3,-6.987189E2,-1.0213197E3,-2.909615E3,-1.0597773E3,7.879619E2,-3.6377534E3,-1.1203398E3,-2.310195E3,2.7865674E2,3.1440254E3,-2.0640732E2,-1.6549895E3,-9.548555E1,9.8636725E2,-2.8975323E2,-9.299998E1,-1.6859988E3,-1.9347709E3,1.0728451E3,1.8116136E3,-5.1777057E2,1.8255508E3,8.411043E3,3.1665512E2,1.6736482E3,-1.9346657E2,2.5066182E3,3.9705386E3,8.740377E2,-3.0410662E1,-1.3706135E3,4.4444546E3,-8.683215E2,-2.3281455E3,-1.0662057E3,4.72877E2,2.5043455E3,-1.1460673E3,5.458025E2,-1.9827843E3,9.7844215E1],"categories":[],"categories_nodes":[],"categories_segments":[],"categories_sizes":[],"default_left":[true,true,true,true,true,true,true,true,false,true,true,true,true,true,true,true,true,true,true,true,false,true,false,true,true,true,true,true,true,true,true,true,true,true,true,true,true,true,true,true,true,true,true,true,true,true,true,true,true,true,true,false,true,false,false,false,false,false,false,false,false,false,false,false,false,false,false,false,false,false,false,false,false,false,false,false,false,false,false,false,false,false,false,false,false,false,false,false,false,false,false,false,false,false,false,false,false,false,false],"id":15,"left_children":[1,3,5,7,9,11,13,15,-1,17,19,21,23,25,27,29,31,33,35,37,-1,39,-1,41,43,45,47,49,51,53,55,57,59,61,63,65,67,69,71,73,75,77,79,81,83,85,87,89,91,93,95,-1,97,-1,-1,-1,-1,-1,-1,-1,-1,-1,-1,-1,-1,-1,-1,-1,-1,-1,-1,-1,-1,-1,-1,-1,-1,-1,-1,-1,-1,-1,-1,-1,-1,-1,-1,-1,-1,-1,-1,-1,-1,-1,-1,-1,-1,-1,-1],"loss_changes":[9.8529384E7,4.180365E7,1.0025349E8,6.716888E8,5.198515E7,5.796395E7,1.4485174E8,3.9260444E7,0E0,5.28944E7,3.7916204E7,4.3835212E7,5.2769184E7,2.9043782E8,1.0482845E8,4.3694124E7,2.3234996E7,1.5568464E7,3.824323E7,3.1766434E7,0E0,2.4327626E7,0E0,8.30012E7,4.029291E7,2.886875E8,5.1972736E7,1.4476744E8,7.153341E7,2.4641502E7,3.1117648E7,1.3978721E7,1.7848768E7,3.3895125E6,9.53064E6,7.4348E6,2.0491014E7,4.9312908E7,2.5742182E7,1.678638E7,2.3806866E7,6.3854736E7,8.439408E6,5.634369E7,2.7366498E7,1.3760784E8,1.503902E8,5.1479196E7,5.6861376E7,3.443447E8,3.417556E8,0E0,6.87575E7,0E0,0E0,0E0,0E0,0E0,0E0,0E0,0E0,0E0,0E0,0E0,0E0,0E0,0E0,0E0,0E0,0E0,0E0,0E0,0E0,0E0,0E0,0E0,0E0,0E0,0E0,0E0,0E0,0E0,0E0,0E0,0E0,0E0,0E0,0E0,0E0,0E0,0E0,0E0,0E0,0E0,0E0,0E0,0E0,0E0,0E0],"parents":[2147483647,0,0,1,1,2,2,3,3,4,4,5,5,6,6,7,7,9,9,10,10,11,11,12,12,13,13,14,14,15,15,16,16,17,17,18,18,19,19,21,21,23,23,24,24,25,25,26,26,27,27,28,28,29,29,30,30,31,31,32,32,33,33,34,34,35,35,36,36,37,37,38,38,39,39,40,40,41,41,42,42,43,43,44,44,45,45,46,46,47,47,48,48,49,49,50,50,52,52],